{"learner":{"attributes":{"scikit_learn":"{\"_estimator_type\": \"regressor\"}"},"feature_names":[],"feature_types":[],"gradient_booster":{"model":{"gbtree_model_param":{"num_parallel_tree":"1","num_trees":"100"},"iteration_indptr":[0,1,2,3,4,5,6,7,8,9,10,11,12,13,14,15,16,17,18,19,20,21,22,23,24,25,26,27,28,29,30,31,32,33,34,35,36,37,38,39,40,41,42,43,44,45,46,47,48,49,50,51,52,53,54,55,56,57,58,59,60,61,62,63,64,65,66,67,68,69,70,71,72,73,74,75,76,77,78,79,80,81,82,83,84,85,86,87,88,89,90,91,92,93,94,95,96,97,98,99,100],"tree_info":[0,0,0,0,0,0,0,0,0,0,0,0,0,0,0,0,0,0,0,0,0,0,0,0,0,0,0,0,0,0,0,0,0,0,0,0,0,0,0,0,0,0,0,0,0,0,0,0,0,0,0,0,0,0,0,0,0,0,0,0,0,0,0,0,0,0,0,0,0,0,0,0,0,0,0,0,0,0,0,0,0,0,0,0,0,0,0,0,0,0,0,0,0,0,0,0,0,0,0,0],"trees":[{"base_weights":[2.4787855E-7,2.0354942E1,-2.8362526E1,-2.215083E1,1.7278355E2,-1.7329113E1,-2.9437983E1,-2.6112183E1,2.1163424E1,2.6678873E2,3.0362537E1,-1.2899284E1,-5.7624474E0,-7.9103403E0,-8.9590435E0,-2.8609169E1,-1.4745122E1,9.902954E0,4.2274628E1,1.5199184E2,3.2183444E2,7.783984E1,1.3611184E1,-1.7145858E0,-4.3731976E0,-8.917293E0,-7.353612E0,-1.7761059E1,-8.452601E0,2.0092213E1,4.653217E0,1.617089E1,6.530248E0,9.566593E1,2.0170941E2,3.7276044E2,1.5949202E2,3.0260246E1,1.6749462E1,3.3839844E1,2.9696205E0,-6.049114E0,-1.4963713E1,-2.84112E0,-1.089517E1,3.5933259E0,2.5765142E1,-1.1171963E0,3.0398414E0,3.554025E1,2.1763748E1,6.610353E1,3.8290714E1,1.3258307E2,9.141649E1,5.485154E1,3.522045E1,1.3953956E1,5.503956E0,1.0134912E1,-3.168009E0,-1.0560535E1,-5.2524104E0,-5.35105E0,2.39501E-2,-4.010159E0,-7.742196E0,2.4833146E-1,1.5483315E0,3.9854145E0,1.0185415E1,3.1933258E0,-2.8201475E0,1.5492415E1,3.8560522E0,2.3769145E0,-2.540772E0,-4.13786E0,-2.4023104E0,-2.2516687E0,-3.3819523E0,-3.206674E0,1.2168729E0,-1.8875141E-1,-2.4523358E0,3.806243E0,1.1124859E-1,-1.4518602E0,-1.5581272E0,5.3321853E0,2.116873E0,-7.516686E-1,5.5481396E0,2.641873E0,-4.3250847E-1,-1.722285E-1,-1.4831271E0,-1.1722285E0,-1.2516686E0,2.612486E-1,1.3483315E0,-1.0820023E0,9.933258E-1,1.0193326E1,-2.0667419E-1,1.806243E0,-1.6500081E0,-3.3875144E-1,2.612486E-1,-4.8875144E-1,-3.8751412E-2,1.4612486E0,-3.5812712E-1,1.2483314E0,3.8483315E0,1.1124859E-1,-1.3312712E-1,1.4833146E-1,8.612486E-1,-3.8751412E-2,-5.645857E-1],"categories":[],"categories_nodes":[],"categories_segments":[],"categories_sizes":[],"default_left":[0,0,0,0,0,0,0,0,0,0,0,0,0,0,0,0,0,0,0,0,0,0,0,0,0,0,0,0,0,0,0,0,0,0,0,0,0,0,0,0,0,0,0,0,0,0,0,0,0,0,0,0,0,0,0,0,0,0,0,0,0,0,0,0,0,0,0,0,0,0,0,0,0,0,0,0,0,0,0,0,0,0,0,0,0,0,0,0,0,0,0,0,0,0,0,0,0,0,0,0,0,0,0,0,0,0,0,0,0,0,0,0,0,0,0,0,0,0,0,0,0],"id":0,"left_children":[1,3,5,7,9,11,13,15,17,19,21,23,-1,-1,-1,25,27,29,31,33,35,37,39,-1,-1,-1,-1,41,43,45,47,-1,-1,49,51,53,55,-1,-1,57,59,-1,61,63,65,67,69,71,-1,-1,-1,-1,-1,-1,-1,-1,-1,-1,-1,73,75,77,-1,79,81,-1,83,-1,-1,-1,-1,85,87,89,91,93,-1,-1,-1,-1,95,97,-1,-1,-1,99,-1,101,-1,-1,-1,-1,103,-1,105,107,-1,109,-1,-1,-1,-1,111,113,115,117,119,-1,-1,-1,-1,-1,-1,-1,-1,-1,-1,-1,-1,-1,-1],"loss_changes":[1.0045326E6,6.567151E6,8.1165E3,1.36618E5,2.950717E6,3.0992578E2,7.6E1,2.0212906E4,1.5508736E4,7.91521E5,6.972301E4,1.9395215E2,0E0,0E0,0E0,1.989875E3,2.3739277E3,2.3135981E3,4.311336E3,1.0672075E5,6.7635E5,6.024797E3,1.4322238E4,0E0,0E0,0E0,0E0,2.9644922E2,5.858347E2,1.311373E3,9.9152435E2,0E0,0E0,3.5307188E3,3.625625E3,1.80709E5,1.13575E3,0E0,0E0,3.6627441E3,2.011113E3,0E0,3.192461E2,1.0799504E2,1.3812988E2,1.7406677E1,6.7281104E2,1.2645539E2,0E0,0E0,0E0,0E0,0E0,0E0,0E0,0E0,0E0,0E0,0E0,6.466797E2,7.550036E2,4.6331055E1,0E0,8.556091E0,1.17221634E2,0E0,4.405127E1,0E0,0E0,0E0,0E0,7.2383194E0,3.1432755E1,8.630444E1,1.3230972E2,2.386239E2,0E0,0E0,0E0,0E0,2.9226318E1,4.931038E0,0E0,0E0,0E0,4.1666718E0,0E0,5.1002884E1,0E0,0E0,0E0,0E0,2.4269626E2,0E0,3.0237106E1,3.977753E0,0E0,1.2194104E0,0E0,0E0,0E0,0E0,4.8216686E1,2.608014E1,8.4913796E-1,4.166668E0,2.2261505E0,0E0,0E0,0E0,0E0,0E0,0E0,0E0,0E0,0E0,0E0,0E0,0E0,0E0,0E0],"parents":[2147483647,0,0,1,1,2,2,3,3,4,4,5,5,6,6,7,7,8,8,9,9,10,10,11,11,15,15,16,16,17,17,18,18,19,19,20,20,21,21,22,22,27,27,28,28,29,29,30,30,33,33,34,34,35,35,36,36,39,39,40,40,42,42,43,43,44,44,45,45,46,46,47,47,59,59,60,60,61,61,63,63,64,64,66,66,71,71,72,72,73,73,74,74,75,75,80,80,81,81,85,85,87,87,92,92,94,94,95,95,97,97,102,102,103,103,104,104,105,105,106,106],"right_children":[2,4,6,8,10,12,14,16,18,20,22,24,-1,-1,-1,26,28,30,32,34,36,38,40,-1,-1,-1,-1,42,44,46,48,-1,-1,50,52,54,56,-1,-1,58,60,-1,62,64,66,68,70,72,-1,-1,-1,-1,-1,-1,-1,-1,-1,-1,-1,74,76,78,-1,80,82,-1,84,-1,-1,-1,-1,86,88,90,92,94,-1,-1,-1,-1,96,98,-1,-1,-1,100,-1,102,-1,-1,-1,-1,104,-1,106,108,-1,110,-1,-1,-1,-1,112,114,116,118,120,-1,-1,-1,-1,-1,-1,-1,-1,-1,-1,-1,-1,-1,-1],"split_conditions":[5.402134E0,5.351501E0,5.417324E0,5.3363113E0,5.3818808E0,5.4071975E0,5.4375772E0,5.3059316E0,5.346438E0,5.3616276E0,5.3869443E0,3E-1,-5.7624474E0,-7.9103403E0,-8.9590435E0,5.275552E0,5.3261847E0,4.090909E-1,7.3636365E-1,5.3565645E0,5.3768177E0,5.181818E-1,5.3920074E0,-1.7145858E0,-4.3731976E0,-8.917293E0,-7.353612E0,5.316058E0,4.090909E-1,1.3636364E-1,5.3413744E0,1.617089E1,6.530248E0,5.181818E-1,9E-1,5.7272726E-1,6.818182E-1,3.0260246E1,1.6749462E1,6.272727E-1,5.7272726E-1,-6.049114E0,5.181818E-1,5.331248E0,5.331248E0,8.181818E-2,5.3413744E0,6.272727E-1,3.0398414E0,3.554025E1,2.1763748E1,6.610353E1,3.8290714E1,1.3258307E2,9.141649E1,5.485154E1,3.522045E1,1.3953956E1,5.503956E0,5.397071E0,5.397071E0,1.9090909E-1,-5.2524104E0,1.3636364E-1,2.4545455E-1,-4.010159E0,4.6363637E-1,2.4833146E-1,1.5483315E0,3.9854145E0,1.0185415E1,5.7272726E-1,1.0636364E0,4.090909E-1,1.3636364E-1,7.3636365E-1,-2.540772E0,-4.13786E0,-2.4023104E0,-2.2516687E0,2.4545455E-1,1.3636364E-1,1.2168729E0,-1.8875141E-1,-2.4523358E0,4.6363637E-1,1.1124859E-1,8.454546E-1,-1.5581272E0,5.3321853E0,2.116873E0,-7.516686E-1,3.5454544E-1,2.641873E0,9E-1,1.9090909E-1,-1.4831271E0,8.181818E-2,-1.2516686E0,2.612486E-1,1.3483315E0,-1.0820023E0,9E-1,2.4545455E-1,4.090909E-1,8.454546E-1,9.5454544E-1,-3.3875144E-1,2.612486E-1,-4.8875144E-1,-3.8751412E-2,1.4612486E0,-3.5812712E-1,1.2483314E0,3.8483315E0,1.1124859E-1,-1.3312712E-1,1.4833146E-1,8.612486E-1,-3.8751412E-2,-5.645857E-1],"split_indices":[1,1,1,1,1,1,1,1,1,1,1,0,0,0,0,1,1,0,0,1,1,0,1,0,0,0,0,1,0,0,1,0,0,0,0,0,0,0,0,0,0,0,0,1,1,0,1,0,0,0,0,0,0,0,0,0,0,0,0,1,1,0,0,0,0,0,0,0,0,0,0,0,0,0,0,0,0,0,0,0,0,0,0,0,0,0,0,0,0,0,0,0,0,0,0,0,0,0,0,0,0,0,0,0,0,0,0,0,0,0,0,0,0,0,0,0,0,0,0,0,0],"split_type":[0,0,0,0,0,0,0,0,0,0,0,0,0,0,0,0,0,0,0,0,0,0,0,0,0,0,0,0,0,0,0,0,0,0,0,0,0,0,0,0,0,0,0,0,0,0,0,0,0,0,0,0,0,0,0,0,0,0,0,0,0,0,0,0,0,0,0,0,0,0,0,0,0,0,0,0,0,0,0,0,0,0,0,0,0,0,0,0,0,0,0,0,0,0,0,0,0,0,0,0,0,0,0,0,0,0,0,0,0,0,0,0,0,0,0,0,0,0,0,0,0],"sum_hessian":[1.738E3,1.012E3,7.26E2,7.92E2,2.2E2,6.6E1,6.6E2,7.26E2,6.6E1,1.32E2,8.8E1,2.2E1,4.4E1,8.8E1,5.72E2,5.94E2,1.32E2,4.4E1,2.2E1,4.4E1,8.8E1,2.2E1,6.6E1,5E0,1.7E1,4.62E2,1.32E2,8.8E1,4.4E1,1.4E1,3E1,1.3E1,9E0,2.2E1,2.2E1,6.6E1,2.2E1,9E0,1.3E1,2.2E1,4.4E1,4.4E1,4.4E1,1.4E1,3E1,4E0,1E1,1.5E1,1.5E1,9E0,1.3E1,1.6E1,6E0,3E1,3.6E1,1.2E1,1E1,1.1E1,1.1E1,2E1,2.4E1,1.8E1,2.6E1,7E0,7E0,1.5E1,1.5E1,2E0,2E0,5E0,5E0,4E0,1.1E1,1E1,1E1,1.2E1,1.2E1,6E0,1.2E1,2E0,5E0,4E0,3E0,1E0,1.4E1,3E0,1E0,8E0,3E0,7E0,3E0,2E0,8E0,3E0,9E0,2E0,3E0,2E0,2E0,1E0,2E0,4E0,4E0,4E0,4E0,3E0,6E0,1E0,1E0,1E0,1E0,1E0,3E0,2E0,2E0,1E0,3E0,2E0,1E0,1E0,5E0],"tree_param":{"num_deleted":"0","num_feature":"2","num_nodes":"121","size_leaf_vector":"1"}},{"base_weights":[3.004894E-1,1.4792656E1,-1.9893272E1,-1.5509673E1,1.234576E2,-1.3373503E1,-6.2310643E0,-1.8340616E1,1.5439654E1,1.903293E2,2.2138577E1,-1.0615021E1,-4.7504387E0,-2.0253202E1,-1.1151887E1,7.3585377E0,3.0579247E1,1.0998758E2,2.28813E2,5.6531796E1,1.0001522E1,-8.231355E0,-4.0330954E0,-6.346894E0,-5.433949E0,-1.3917809E1,-7.311307E0,1.5129048E1,3.361241E0,4.351369E1,5.746838E0,6.945763E1,1.4573546E2,2.9897723E2,1.5356403E2,7.565015E1,1.2387599E1,2.4533888E1,2.3516126E0,-2.5423865E0,-1.0381042E0,-1.1848821E1,-4.529879E0,-8.890572E0,-3.9035597E0,2.8746605E0,1.9323856E1,-7.705486E-1,7.2829533E0,2.485615E0,1.3952205E1,8.648127E1,1.5700989E1,5.1850487E1,3.1947409E1,1.0901537E2,7.5273506E1,1.8489078E2,1.1556059E2,9.796283E0,2.4980936E1,1.1681772E1,1.5797845E1,6.5148897E0,-3.6883922E0,-3.824022E0,-8.149765E0,-4.917886E0,-3.0558474E0,-1.6641872E-1,-1.7656821E0,1.9866525E-1,4.1288834E0,2.9890604E0,7.6390615E0,2.5794938E0,-2.1021872E0,2.2565088E0,5.552725E-1,6.7802114E0,2.7320375E1,6.0097702E1,3.2331295E1,3.642495E1,1.7217274E1,5.220368E0,2.6370485E0,1.1002858E1,1.5615718E0,-2.6213092E-1,-2.0237443E0,-2.6213872E0,-4.2840502E-1,-2.9552588E0,-4.8927328E-1,-2.6005058E0,2.3009522E0,3.2899877E-1,1.5289989E0,3.0667648E0,9.456139E-2,-1.0139552E0,-1.2075487E0,1.310829E1,7.0248146E0,4.9657083E0,-1.6122439E0,1.5167656E0,-1.2411959E0,-9.9639386E-1,-1.0013348E0,1.1049569E0,1.5173085E-1,2.2206117E-1,1.0786653E0,-2.7410722E0,9.159527E-1,4.939649E0,4.5023685E0,9.249565E-1,2.3954484E0,-6.0133475E-1,8.154661E0,-1.4904746E-1,-3.0381784E0,3.9555106E-1,7.320614E-1,-3.2938674E-2,-4.2343903E-1,-4.1543856E-1,-3.2938674E-2,2.2871763E-1,-1.6043873E-1,-1.0352681E0,-3.3526802E-1,1.2420614E0,-2.7754843E-1,1.8614211E0,3.6142102E-1,9.986653E-1,3.0786655E0,-1.4948063E-1,7.4956894E-2,-1.0435144E0,-2.576357E-1,5.38999E-1,-3.61001E-1],"categories":[],"categories_nodes":[],"categories_segments":[],"categories_sizes":[],"default_left":[0,0,0,0,0,0,0,0,0,0,0,0,0,0,0,0,0,0,0,0,0,0,0,0,0,0,0,0,0,0,0,0,0,0,0,0,0,0,0,0,0,0,0,0,0,0,0,0,0,0,0,0,0,0,0,0,0,0,0,0,0,0,0,0,0,0,0,0,0,0,0,0,0,0,0,0,0,0,0,0,0,0,0,0,0,0,0,0,0,0,0,0,0,0,0,0,0,0,0,0,0,0,0,0,0,0,0,0,0,0,0,0,0,0,0,0,0,0,0,0,0,0,0,0,0,0,0,0,0,0,0,0,0,0,0,0,0,0,0,0,0,0,0,0,0,0,0],"id":1,"left_children":[1,3,5,7,9,11,-1,13,15,17,19,21,-1,23,25,27,29,31,33,35,37,39,-1,-1,-1,41,43,45,47,49,-1,51,53,55,57,59,-1,61,63,-1,-1,65,-1,67,69,71,73,75,77,-1,-1,79,-1,-1,-1,-1,-1,81,83,-1,-1,-1,85,87,89,-1,91,93,-1,95,-1,-1,97,-1,-1,99,101,-1,-1,-1,-1,-1,-1,-1,-1,-1,-1,103,105,107,-1,-1,-1,-1,-1,109,111,-1,-1,113,-1,115,-1,117,119,121,123,125,127,129,-1,-1,131,-1,-1,133,135,137,-1,-1,-1,-1,139,141,143,145,-1,-1,-1,-1,-1,-1,-1,-1,-1,-1,-1,-1,-1,-1,-1,-1,-1,-1,-1,-1,-1],"loss_changes":[5.0921497E5,3.3375222E6,3.8788125E3,6.97625E4,1.4931445E6,4.3617188E2,0E0,9.769703E3,7.972086E3,3.86049E5,3.6586074E4,1.9275342E2,0E0,7.242344E2,1.5447656E3,1.346894E3,2.5647344E3,5.507625E4,4.239885E5,3.5775312E3,7.390782E3,2.0118408E0,0E0,0E0,0E0,3.870117E1,3.2587134E2,7.155227E2,5.0792624E2,6.692832E2,0E0,2.1774844E3,6.0549688E3,4.813225E4,3.22075E4,2.2940625E2,0E0,2.279296E3,1.1556091E3,0E0,0E0,1.9010742E1,0E0,1.815188E2,1.693859E2,1.1140266E1,3.7845654E2,7.67993E1,6.82782E0,0E0,0E0,8.7177344E2,0E0,0E0,0E0,0E0,0E0,5.7884375E3,8.664375E2,0E0,0E0,0E0,2.6816406E1,5.8303723E2,1.9726675E2,0E0,2.7058899E1,1.9472357E2,0E0,6.00358E1,0E0,0E0,3.214241E0,0E0,0E0,4.5499535E0,2.103038E1,0E0,0E0,0E0,0E0,0E0,0E0,0E0,0E0,0E0,0E0,2.5173584E1,1.5926334E2,1.9299156E1,0E0,0E0,0E0,0E0,0E0,2.5876236E0,1.4294813E1,0E0,0E0,2.2595673E0,0E0,3.2509277E1,0E0,5.0003906E1,1.8693848E0,1.7193811E2,1.6238544E1,3.1762676E0,1.193512E0,8.810234E-1,0E0,0E0,1.6654295E0,0E0,0E0,1.9054375E0,3.3511433E1,6.699898E0,0E0,0E0,0E0,0E0,1.6691254E1,8.2102406E-1,8.503113E-1,8.882654E0,0E0,0E0,0E0,0E0,0E0,0E0,0E0,0E0,0E0,0E0,0E0,0E0,0E0,0E0,0E0,0E0,0E0,0E0,0E0,0E0,0E0],"parents":[2147483647,0,0,1,1,2,2,3,3,4,4,5,5,7,7,8,8,9,9,10,10,11,11,13,13,14,14,15,15,16,16,17,17,18,18,19,19,20,20,21,21,25,25,26,26,27,27,28,28,29,29,31,31,32,32,33,33,34,34,35,35,37,37,38,38,41,41,43,43,44,44,45,45,46,46,47,47,48,48,51,51,57,57,58,58,62,62,63,63,64,64,66,66,67,67,69,69,72,72,75,75,76,76,87,87,88,88,89,89,95,95,96,96,99,99,101,101,103,103,104,104,105,105,106,106,107,107,108,108,109,109,112,112,115,115,116,116,117,117,122,122,123,123,124,124,125,125],"right_children":[2,4,6,8,10,12,-1,14,16,18,20,22,-1,24,26,28,30,32,34,36,38,40,-1,-1,-1,42,44,46,48,50,-1,52,54,56,58,60,-1,62,64,-1,-1,66,-1,68,70,72,74,76,78,-1,-1,80,-1,-1,-1,-1,-1,82,84,-1,-1,-1,86,88,90,-1,92,94,-1,96,-1,-1,98,-1,-1,100,102,-1,-1,-1,-1,-1,-1,-1,-1,-1,-1,104,106,108,-1,-1,-1,-1,-1,110,112,-1,-1,114,-1,116,-1,118,120,122,124,126,128,130,-1,-1,132,-1,-1,134,136,138,-1,-1,-1,-1,140,142,144,146,-1,-1,-1,-1,-1,-1,-1,-1,-1,-1,-1,-1,-1,-1,-1,-1,-1,-1,-1,-1,-1],"split_conditions":[5.402134E0,5.351501E0,5.422387E0,5.3363113E0,5.3818808E0,5.4122605E0,-6.2310643E0,5.300868E0,5.346438E0,5.3616276E0,5.3869443E0,7.3636365E-1,-4.7504387E0,5.2603617E0,5.321121E0,4.090909E-1,5.181818E-1,5.3565645E0,5.371754E0,4.6363637E-1,5.3920074E0,6.818182E-1,-4.0330954E0,-6.346894E0,-5.433949E0,5.181818E-1,5.331248E0,1.3636364E-1,5.3413744E0,8.181818E-2,5.746838E0,5.181818E-1,6.272727E-1,4.6363637E-1,5.3768177E0,1.3636364E-1,1.2387599E1,4.090909E-1,7.3636365E-1,-2.5423865E0,-1.0381042E0,5.316058E0,-4.529879E0,3.5454544E-1,4.6363637E-1,8.181818E-2,5.3413744E0,6.272727E-1,1.1727272E0,2.485615E0,1.3952205E1,8.181818E-2,1.5700989E1,5.1850487E1,3.1947409E1,1.0901537E2,7.5273506E1,9.5454544E-1,1.0636364E0,9.796283E0,2.4980936E1,1.1681772E1,1.0090909E0,5.397071E0,5.397071E0,-3.824022E0,4.6363637E-1,1.3636364E-1,-3.0558474E0,2.4545455E-1,-1.7656821E0,1.9866525E-1,5.3413744E0,2.9890604E0,7.6390615E0,5.7272726E-1,1.0636364E0,2.2565088E0,5.552725E-1,6.7802114E0,2.7320375E1,6.0097702E1,3.2331295E1,3.642495E1,1.7217274E1,5.220368E0,2.6370485E0,4.090909E-1,3.5454544E-1,9E-1,-2.0237443E0,-2.6213872E0,-4.2840502E-1,-2.9552588E0,-4.8927328E-1,1.3636364E-1,3.5454544E-1,3.2899877E-1,1.5289989E0,4.6363637E-1,9.456139E-2,8.454546E-1,-1.2075487E0,1.3636364E-1,5.181818E-1,1.3636364E-1,5.7272726E-1,8.454546E-1,9.5454544E-1,8.181818E-2,-1.0013348E0,1.1049569E0,4.090909E-1,2.2206117E-1,1.0786653E0,7.3636365E-1,9E-1,8.181818E-2,4.5023685E0,9.249565E-1,2.3954484E0,-6.0133475E-1,2.4545455E-1,4.6363637E-1,6.818182E-1,7.909091E-1,7.320614E-1,-3.2938674E-2,-4.2343903E-1,-4.1543856E-1,-3.2938674E-2,2.2871763E-1,-1.6043873E-1,-1.0352681E0,-3.3526802E-1,1.2420614E0,-2.7754843E-1,1.8614211E0,3.6142102E-1,9.986653E-1,3.0786655E0,-1.4948063E-1,7.4956894E-2,-1.0435144E0,-2.576357E-1,5.38999E-1,-3.61001E-1],"split_indices":[1,1,1,1,1,1,0,1,1,1,1,0,0,1,1,0,0,1,1,0,1,0,0,0,0,0,1,0,1,0,0,0,0,0,1,0,0,0,0,0,0,1,0,0,0,0,1,0,0,0,0,0,0,0,0,0,0,0,0,0,0,0,0,1,1,0,0,0,0,0,0,0,1,0,0,0,0,0,0,0,0,0,0,0,0,0,0,0,0,0,0,0,0,0,0,0,0,0,0,0,0,0,0,0,0,0,0,0,0,0,0,0,0,0,0,0,0,0,0,0,0,0,0,0,0,0,0,0,0,0,0,0,0,0,0,0,0,0,0,0,0,0,0,0,0,0,0],"split_type":[0,0,0,0,0,0,0,0,0,0,0,0,0,0,0,0,0,0,0,0,0,0,0,0,0,0,0,0,0,0,0,0,0,0,0,0,0,0,0,0,0,0,0,0,0,0,0,0,0,0,0,0,0,0,0,0,0,0,0,0,0,0,0,0,0,0,0,0,0,0,0,0,0,0,0,0,0,0,0,0,0,0,0,0,0,0,0,0,0,0,0,0,0,0,0,0,0,0,0,0,0,0,0,0,0,0,0,0,0,0,0,0,0,0,0,0,0,0,0,0,0,0,0,0,0,0,0,0,0,0,0,0,0,0,0,0,0,0,0,0,0,0,0,0,0,0,0],"sum_hessian":[1.738E3,1.012E3,7.26E2,7.92E2,2.2E2,8.8E1,6.38E2,7.26E2,6.6E1,1.32E2,8.8E1,4.4E1,4.4E1,5.72E2,1.54E2,4.4E1,2.2E1,4.4E1,8.8E1,2.2E1,6.6E1,2.6E1,1.8E1,3.96E2,1.76E2,8.8E1,6.6E1,1.4E1,3E1,9E0,1.3E1,2.2E1,2.2E1,4.4E1,4.4E1,8E0,1.4E1,2.2E1,4.4E1,2.4E1,2E0,3.6E1,5.2E1,4.4E1,2.2E1,4E0,1E1,1.5E1,1.5E1,1E0,8E0,9E0,1.3E1,1.1E1,1.1E1,1.6E1,2.8E1,2.2E1,2.2E1,2E0,6E0,7E0,1.5E1,2.6E1,1.8E1,2.7E1,9E0,1.2E1,3.2E1,8E0,1.4E1,2E0,2E0,5E0,5E0,4E0,1.1E1,1.4E1,1E0,1E0,8E0,1.7E1,5E0,1.9E1,3E0,1.1E1,4E0,1.3E1,1.3E1,9E0,9E0,8E0,1E0,4E0,8E0,4E0,4E0,1E0,1E0,3E0,1E0,8E0,3E0,7E0,6E0,6E0,7E0,3E0,6E0,2E0,2E0,2E0,2E0,1E0,2E0,4E0,4E0,2E0,5E0,2E0,4E0,2E0,4E0,4E0,3E0,2E0,1E0,1E0,5E0,1E0,1E0,1E0,1E0,2E0,2E0,1E0,3E0,1E0,1E0,2E0,2E0,2E0,2E0,2E0,1E0,1E0,1E0],"tree_param":{"num_deleted":"0","num_feature":"2","num_nodes":"147","size_leaf_vector":"1"}},{"base_weights":[5.141837E-1,1.1168807E1,-1.3583609E1,-1.0849538E1,9.8854126E1,-5.579514E0,-1.4348895E1,-1.2882072E1,1.1366906E1,1.3671893E2,2.2214235E1,-1.3843791E0,-7.599705E0,-3.6225567E0,-4.399464E0,-1.4339353E1,-8.272786E0,5.4904943E0,2.2370022E1,7.996018E1,1.6388101E2,4.16229E1,1.1800604E1,2.8411944E0,-4.3037615E0,-5.458782E0,-2.8230622E0,-4.4734516E0,-3.9138458E0,-1.0025589E1,-5.2454157E0,1.0036352E1,1.4523538E0,2.9094954E1,3.2154348E0,5.0785625E1,1.056582E2,2.1337938E2,1.10740845E2,1.6634008E1,2.8775696E1,1.802325E1,5.0648866E0,-1.6035589E0,4.1528273E0,-2.8648367E0,-1.7234567E0,-4.005283E0,-6.4573827E0,-2.7805853E0,-3.5040228E0,-4.2024827E0,-2.4921324E0,5.2620506E0,1.3898257E1,-1.4412382E0,4.234226E0,3.9241707E0,3.2273373E1,6.394695E1,1.1327142E1,3.75916E1,2.316187E1,2.388822E2,4.393447E1,1.4412991E2,8.73493E1,9.005888E0,1.8906894E0,2.7923203E1,3.2645192E0,8.419545E0,-1.381237E-1,-1.3580075E-1,-5.8580077E-1,6.5237274E0,1.5099573E-1,-3.6279824E0,-1.2921779E-1,-2.1678078E0,-1.5024236E0,-2.0600479E0,-2.9302627E-1,-5.3097506E0,-1.8159913E0,5.1946265E-1,6.369549E0,4.4199087E-2,1.5258616E1,-6.258091E-1,-9.358504E-1,7.562469E-1,5.695967E0,1.2054641E1,5.695714E0,7.730223E0,2.1081272E1,3.6934376E1,2.5147318E2,1.8603127E1,4.9388226E1,3.1533667E1,1.9128927E1,3.2211854E0,9.389871E0,1.0016454E1,1.6175145E0,1.2892504E0,-9.3403405E-1,2.6631062E0,2.462932E0,-3.9861488E-1,2.6997414E-1,-1.8002588E-1,-1.2097852E0,3.4592602E-1,-4.04074E-1,-1.5002055E0,-6.0109556E-1,-5.5060253E0,-1.3808073E0,-1.4721298E-1,-3.1362927E0,2.4641237E0,2.4719162E0,1.6961945E1,1.6890618E0,-1.738073E0,8.3406943E-1,1.1167964E0,-9.160185E-1,2.5751946E0,2.8212967E0,9.104816E1,6.0906063E1,1.4627409E0,3.6377053E0,3.3621788E-1,6.222522E-1,-2.7997972E-2,-3.1757927E-1,1.424199E0,-2.258011E-1,1.1698351E-1,-2.9636022E-1,1.997261E-1,-1.6675797E0,-3.7074838E0,-1.9071652E0,-1.1925128E0,5.7114947E-1,-2.1102967E0,1.8453133E0,-1.5696782E0,-8.6693764E-1,1.88752E-1,8.6293185E-1,1.2996489E0,5.4441957E0,-2.017409E-1,-2.4558039E0,1.0557524E0,-7.170005E-1,-9.832037E-1,2.8906175E-1,1.0839815E0,1.2591854E0,4.5814908E-1,-3.0685103E-1,-7.5020546E-1,-2.0542146E-4,-2.2459967E0,-3.5880047E-1,-2.540806E-1,-8.0106777E-1,7.60179E-1,-1.3637295E-1,2.91935E-1,-6.0907316E-1,8.0377296E-2,-1.711607E-1,-1.0711608E0,-2.6821443E-1,-4.245335E-1,2.065999E-1,5.8906174E-1,-2.3320371E-1],"categories":[],"categories_nodes":[],"categories_segments":[],"categories_sizes":[],"default_left":[0,0,0,0,0,0,0,0,0,0,0,0,0,0,0,0,0,0,0,0,0,0,0,0,0,0,0,0,0,0,0,0,0,0,0,0,0,0,0,0,0,0,0,0,0,0,0,0,0,0,0,0,0,0,0,0,0,0,0,0,0,0,0,0,0,0,0,0,0,0,0,0,0,0,0,0,0,0,0,0,0,0,0,0,0,0,0,0,0,0,0,0,0,0,0,0,0,0,0,0,0,0,0,0,0,0,0,0,0,0,0,0,0,0,0,0,0,0,0,0,0,0,0,0,0,0,0,0,0,0,0,0,0,0,0,0,0,0,0,0,0,0,0,0,0,0,0,0,0,0,0,0,0,0,0,0,0,0,0,0,0,0,0,0,0,0,0,0,0,0,0,0,0,0,0,0,0,0,0,0,0,0,0,0,0,0,0],"id":2,"left_children":[1,3,5,7,9,11,13,15,17,19,21,23,25,-1,-1,27,29,31,33,35,37,39,41,43,45,47,-1,-1,-1,49,51,53,55,57,-1,59,61,63,65,-1,67,69,71,73,75,77,-1,79,81,-1,-1,83,-1,85,87,89,91,-1,93,95,-1,-1,-1,97,-1,99,101,-1,-1,103,-1,105,107,-1,-1,109,111,113,115,117,-1,-1,-1,119,121,-1,123,-1,125,127,-1,129,131,-1,-1,-1,-1,-1,133,-1,-1,-1,-1,-1,-1,135,-1,137,139,141,-1,143,-1,-1,-1,-1,-1,-1,145,147,149,151,153,-1,155,157,-1,159,161,-1,163,-1,165,-1,-1,-1,-1,167,-1,-1,-1,-1,-1,-1,-1,-1,169,171,-1,-1,-1,173,175,-1,177,-1,-1,-1,-1,179,181,-1,183,-1,-1,185,-1,-1,-1,-1,-1,-1,-1,-1,-1,-1,-1,-1,-1,-1,-1,-1,-1,-1,-1,-1,-1],"loss_changes":[2.6136111E5,1.914382E6,4.5078906E3,3.5954875E4,5.744519E5,5.573025E2,3.13625E2,4.7646484E3,4.2093203E3,1.9194025E5,1.3050512E4,2.959573E2,1.23058105E2,0E0,0E0,2.1315625E2,8.866416E2,8.114802E2,1.4903975E3,2.8371875E4,2.104715E5,2.4892148E3,1.7948442E3,6.495815E1,1.2572723E1,7.5200195E0,0E0,0E0,0E0,3.075879E1,1.790299E2,3.1406274E2,2.0734264E2,2.9045117E2,0E0,1.5294023E3,3.1826562E3,4.1828E4,2.2556375E4,0E0,2.0218164E2,1.3222632E3,4.0261237E2,3.2144928E-1,7.491849E1,1.8320282E1,0E0,1.1254791E1,2.0220856E1,0E0,0E0,1.2776672E2,0E0,3.1981201E1,2.0352026E2,1.5838345E1,6.178322E1,0E0,3.9309277E2,6.037578E2,0E0,0E0,0E0,1.42265E4,0E0,1.8406531E4,5.447547E3,0E0,0E0,1.8616113E2,0E0,1.3686523E1,1.2564822E1,0E0,0E0,1.0682419E1,2.0051723E0,6.156433E0,6.237477E0,2.3623926E1,0E0,0E0,0E0,1.9387634E1,3.9197525E1,0E0,3.7200317E1,0E0,6.850391E1,1.7687376E1,0E0,2.8213123E1,5.0500854E1,0E0,0E0,0E0,0E0,0E0,6.439625E3,0E0,0E0,0E0,0E0,0E0,0E0,2.7620056E1,0E0,2.2948565E0,6.3425493E-1,2.49309E1,0E0,1.7791967E0,0E0,0E0,0E0,0E0,0E0,0E0,7.86557E0,2.695044E1,3.3131184E1,3.909762E1,4.3028893E1,0E0,1.1719494E0,4.115088E1,0E0,6.1206017E0,2.334718E1,0E0,2.0910852E1,0E0,9.793369E0,0E0,0E0,0E0,0E0,6.417719E0,0E0,0E0,0E0,0E0,0E0,0E0,0E0,0E0,4.164384E0,1.1443317E2,0E0,0E0,0E0,1.2754574E0,9.070576E0,0E0,1.4818943E1,0E0,0E0,0E0,0E0,6.724906E-1,3.7715263E0,0E0,4.8997855E0,0E0,0E0,8.074925E0,0E0,0E0,0E0,0E0,0E0,0E0,0E0,0E0,0E0,0E0,0E0,0E0,0E0,0E0,0E0,0E0,0E0,0E0,0E0,0E0,0E0],"parents":[2147483647,0,0,1,1,2,2,3,3,4,4,5,5,6,6,7,7,8,8,9,9,10,10,11,11,12,12,15,15,16,16,17,17,18,18,19,19,20,20,21,21,22,22,23,23,24,24,25,25,29,29,30,30,31,31,32,32,33,33,35,35,36,36,37,37,38,38,40,40,41,41,42,42,43,43,44,44,45,45,47,47,48,48,51,51,53,53,54,54,55,55,56,56,58,58,59,59,63,63,65,65,66,66,69,69,71,71,72,72,75,75,76,76,77,77,78,78,79,79,83,83,84,84,86,86,88,88,89,89,91,91,92,92,98,98,105,105,107,107,108,108,109,109,111,111,118,118,119,119,120,120,121,121,122,122,124,124,125,125,127,127,128,128,130,130,132,132,137,137,146,146,147,147,151,151,152,152,154,154,159,159,160,160,162,162,165,165],"right_children":[2,4,6,8,10,12,14,16,18,20,22,24,26,-1,-1,28,30,32,34,36,38,40,42,44,46,48,-1,-1,-1,50,52,54,56,58,-1,60,62,64,66,-1,68,70,72,74,76,78,-1,80,82,-1,-1,84,-1,86,88,90,92,-1,94,96,-1,-1,-1,98,-1,100,102,-1,-1,104,-1,106,108,-1,-1,110,112,114,116,118,-1,-1,-1,120,122,-1,124,-1,126,128,-1,130,132,-1,-1,-1,-1,-1,134,-1,-1,-1,-1,-1,-1,136,-1,138,140,142,-1,144,-1,-1,-1,-1,-1,-1,146,148,150,152,154,-1,156,158,-1,160,162,-1,164,-1,166,-1,-1,-1,-1,168,-1,-1,-1,-1,-1,-1,-1,-1,170,172,-1,-1,-1,174,176,-1,178,-1,-1,-1,-1,180,182,-1,184,-1,-1,186,-1,-1,-1,-1,-1,-1,-1,-1,-1,-1,-1,-1,-1,-1,-1,-1,-1,-1,-1,-1,-1],"split_conditions":[5.397071E0,5.351501E0,5.4122605E0,5.3363113E0,5.3818808E0,5.402134E0,5.4325137E0,5.295805E0,5.346438E0,5.3616276E0,5.3869443E0,5.181818E-1,6.272727E-1,-3.6225567E0,-4.399464E0,5.2552986E0,5.321121E0,5.7272726E-1,7.3636365E-1,5.3565645E0,5.371754E0,5.181818E-1,5.3920074E0,1.3636364E-1,9.5454544E-1,5.4071975E0,-2.8230622E0,-4.4734516E0,-3.9138458E0,9E-1,9.5454544E-1,5.3413744E0,5.3413744E0,1.9090909E-1,3.2154348E0,5.181818E-1,6.272727E-1,8.454546E-1,4.6363637E-1,1.6634008E1,1.1727272E0,4.6363637E-1,7.3636365E-1,8.181818E-2,3.5454544E-1,8.454546E-1,-1.7234567E0,3E-1,5.7272726E-1,-2.7805853E0,-3.5040228E0,5.331248E0,-2.4921324E0,1.9090909E-1,8.181818E-2,1.0636364E0,7.909091E-1,3.9241707E0,4.6363637E-1,1.3636364E-1,1.1327142E1,3.75916E1,2.316187E1,1.3636364E-1,4.393447E1,1.3636364E-1,5.3768177E0,9.005888E0,1.8906894E0,1.3636364E-1,3.2645192E0,4.090909E-1,9E-1,-1.3580075E-1,-5.8580077E-1,2.4545455E-1,4.6363637E-1,5.7272726E-1,9E-1,8.181818E-2,-1.5024236E0,-2.0600479E0,-2.9302627E-1,9E-1,4.6363637E-1,5.1946265E-1,4.090909E-1,4.4199087E-2,4.6363637E-1,8.454546E-1,-9.358504E-1,6.272727E-1,9.5454544E-1,1.2054641E1,5.695714E0,7.730223E0,2.1081272E1,3.6934376E1,4.090909E-1,1.8603127E1,4.9388226E1,3.1533667E1,1.9128927E1,3.2211854E0,9.389871E0,1.9090909E-1,1.6175145E0,8.454546E-1,9.5454544E-1,1.9090909E-1,2.462932E0,4.090909E-1,2.6997414E-1,-1.8002588E-1,-1.2097852E0,3.4592602E-1,-4.04074E-1,-1.5002055E0,1.9090909E-1,3.5454544E-1,5.3261847E0,2.4545455E-1,6.818182E-1,2.4641237E0,4.6363637E-1,1.3636364E-1,1.6890618E0,6.818182E-1,9E-1,1.1167964E0,6.818182E-1,2.5751946E0,1.1181818E0,9.104816E1,6.0906063E1,1.4627409E0,3.6377053E0,7.909091E-1,6.222522E-1,-2.7997972E-2,-3.1757927E-1,1.424199E0,-2.258011E-1,1.1698351E-1,-2.9636022E-1,1.997261E-1,2.4545455E-1,1.3636364E-1,-1.9071652E0,-1.1925128E0,5.7114947E-1,1.3636364E-1,4.090909E-1,-1.5696782E0,7.909091E-1,1.88752E-1,8.6293185E-1,1.2996489E0,5.4441957E0,6.272727E-1,7.3636365E-1,1.0557524E0,1.0090909E0,-9.832037E-1,2.8906175E-1,1.0636364E0,1.2591854E0,4.5814908E-1,-3.0685103E-1,-7.5020546E-1,-2.0542146E-4,-2.2459967E0,-3.5880047E-1,-2.540806E-1,-8.0106777E-1,7.60179E-1,-1.3637295E-1,2.91935E-1,-6.0907316E-1,8.0377296E-2,-1.711607E-1,-1.0711608E0,-2.6821443E-1,-4.245335E-1,2.065999E-1,5.8906174E-1,-2.3320371E-1],"split_indices":[1,1,1,1,1,1,1,1,1,1,1,0,0,0,0,1,1,0,0,1,1,0,1,0,0,1,0,0,0,0,0,1,1,0,0,0,0,0,0,0,0,0,0,0,0,0,0,0,0,0,0,1,0,0,0,0,0,0,0,0,0,0,0,0,0,0,1,0,0,0,0,0,0,0,0,0,0,0,0,0,0,0,0,0,0,0,0,0,0,0,0,0,0,0,0,0,0,0,0,0,0,0,0,0,0,0,0,0,0,0,0,0,0,0,0,0,0,0,0,0,1,0,0,0,0,0,0,0,0,0,0,0,0,0,0,0,0,0,0,0,0,0,0,0,0,0,0,0,0,0,0,0,0,0,0,0,0,0,0,0,0,0,0,0,0,0,0,0,0,0,0,0,0,0,0,0,0,0,0,0,0,0,0,0,0,0,0],"split_type":[0,0,0,0,0,0,0,0,0,0,0,0,0,0,0,0,0,0,0,0,0,0,0,0,0,0,0,0,0,0,0,0,0,0,0,0,0,0,0,0,0,0,0,0,0,0,0,0,0,0,0,0,0,0,0,0,0,0,0,0,0,0,0,0,0,0,0,0,0,0,0,0,0,0,0,0,0,0,0,0,0,0,0,0,0,0,0,0,0,0,0,0,0,0,0,0,0,0,0,0,0,0,0,0,0,0,0,0,0,0,0,0,0,0,0,0,0,0,0,0,0,0,0,0,0,0,0,0,0,0,0,0,0,0,0,0,0,0,0,0,0,0,0,0,0,0,0,0,0,0,0,0,0,0,0,0,0,0,0,0,0,0,0,0,0,0,0,0,0,0,0,0,0,0,0,0,0,0,0,0,0,0,0,0,0,0,0],"sum_hessian":[1.738E3,9.9E2,7.48E2,7.92E2,1.98E2,6.6E1,6.82E2,7.26E2,6.6E1,1.32E2,6.6E1,2.2E1,4.4E1,8.8E1,5.94E2,5.5E2,1.76E2,4.4E1,2.2E1,4.4E1,8.8E1,2.2E1,4.4E1,9E0,1.3E1,2.2E1,2.2E1,3.74E2,1.76E2,1.1E2,6.6E1,2E1,2.4E1,1.3E1,9E0,2.2E1,2.2E1,4.4E1,4.4E1,9E0,1.3E1,2.2E1,2.2E1,2E0,7E0,8E0,5E0,1.1E1,1.1E1,8E1,3E1,5.1E1,1.5E1,1E1,1E1,1.2E1,1.2E1,3E0,1E1,9E0,1.3E1,1.1E1,1.1E1,3E1,1.4E1,1.6E1,2.8E1,1.2E1,1E0,8E0,1.4E1,1.3E1,9E0,1E0,1E0,4E0,3E0,6E0,2E0,5E0,6E0,1E1,1E0,3.4E1,1.7E1,3E0,7E0,1E0,9E0,9E0,3E0,4E0,8E0,5E0,5E0,2E0,7E0,4E0,2.6E1,4E0,1.2E1,1.4E1,1.4E1,2E0,6E0,7E0,6E0,3E0,6E0,2E0,2E0,2E0,1E0,1E0,5E0,1E0,1E0,1E0,4E0,3.2E1,2E0,8E0,9E0,4E0,3E0,7E0,2E0,5E0,4E0,1E0,3E0,3E0,5E0,1E1,1.6E1,3E0,4E0,2E0,1E0,1E0,5E0,1E0,1E0,1E0,1E0,2E0,2E0,1.2E1,2E1,1E0,1E0,4E0,4E0,4E0,5E0,1E0,2E0,1E0,6E0,2E0,3E0,1E0,3E0,1E0,2E0,3E0,2E0,1E0,1E0,1E0,1E0,4E0,8E0,2E0,2E0,3E0,1E0,2E0,3E0,1E0,1E0,1E0,2E0,2E0,1E0,2E0,1E0],"tree_param":{"num_deleted":"0","num_feature":"2","num_nodes":"187","size_leaf_vector":"1"}},{"base_weights":[6.4854264E-1,8.341669E0,-9.531079E0,-7.574662E0,7.172513E1,-4.038056E0,-1.0055972E1,-9.05131E0,8.561119E0,1.06919586E2,2.702502E1,-9.7519964E-1,-5.513781E0,-9.046408E0,-3.154842E0,-9.800308E0,-4.806413E0,4.189948E0,1.6741186E1,5.8214172E1,1.3803636E2,4.4677475E1,8.772012E0,2.2918684E0,-3.2391627E0,-4.077947E0,-2.0129657E0,-7.6478662E0,-2.805258E0,-3.0654263E0,-7.8037825E0,-5.4895644E0,-1.9539397E0,8.770673E0,1.8383083E0,2.432922E1,1.0125364E1,3.7295094E1,7.6602196E1,1.7316776E2,1.09993484E2,5.707944E1,3.033301E1,1.5836157E1,5.0709085E0,-1.3630251E0,3.37597E0,-2.3124697E0,-1.4933331E0,-1.8394626E0,-3.5903883E0,-2.007761E0,-2.7337072E0,-6.330739E0,-2.4813592E0,-4.754256E0,-2.2932513E0,-1.5097576E-1,-2.9054554E0,1.9470402E0,1.107499E1,-4.1690004E-1,3.9786224E0,3.041232E0,8.688962E0,3.4365737E0,3.9368534E0,1.4056088E1,2.6338255E1,1.02296524E2,1.769022E1,2.6517897E1,5.7681087E1,1.24890915E2,2.2021818E1,6.7040825E1,1.2035356E1,4.2033447E1,2.1290548E1,2.204372E1,7.649072E0,8.10626E0,1.7186259E0,-1.1543055E-1,-4.9793074E-1,5.298875E0,1.2834644E-1,-2.54668E0,4.444599E-3,-6.981856E-1,-1.1574253E0,-2.3648713E0,-1.3148711E0,-1.6527555E0,-3.8634913E0,-1.6882378E0,1.4164814E0,-3.3450341E0,-3.212865E-2,1.0256596E-1,2.9031804E0,5.7433257E0,4.368247E0,1.6857048E0,-1.2582437E0,4.5630426E0,2.2440815E0,5.498276E-1,1.5373708E0,8.186189E0,2.2424664E0,1.1339206E1,3.524901E1,4.0490738E1,2.3044422E1,8.472409E0,2.1458364E1,4.5102234E0,1.4279948E1,6.8779755E0,2.1312616E0,1.4827114E0,7.134216E0,1.1336241E0,2.7646556E0,3.2919364E0,5.805585E0,3.8291357E0,-3.483412E-1,2.2636402E0,1.9703454E0,-3.388227E-1,2.2947808E-1,-1.5302211E-1,-8.148884E-1,1.1983567E-1,-4.340192E-1,-4.1394815E0,-6.5045315E-1,-6.775487E-1,-6.408543E-1,2.439766E0,-7.89636E-2,-2.0455127E0,-1.50455E0,3.6777106E-1,-3.8222897E-1,2.017296E-1,1.1047016E0,4.8715785E-1,1.8727342E0,1.9932632E0,6.832066E-2,-6.031634E-1,-7.252841E-1,2.9478912E0,6.652585E0,8.477516E-1,3.3578274E0,6.505631E-1,1.9118602E0,1.3882065E0,4.411411E0,5.957578E-1,-7.0319206E-1,1.2105693E0,-1.9193116E-1,9.9436E-2,-2.5190622E-1,-3.1777427E0,-1.7770789E0,-3.1501094E-1,1.0114003E-2,9.894734E-2,9.989474E-1,8.03833E-2,-1.1591692E-1,-1.1107427E0,9.513092E-1,1.6043931E-1,6.9034576E-1,-1.8371067E0,7.514126E-1,1.6105275E0,-8.1474876E-1,2.2740228E0,5.8051705E-1,4.712494E-1,-1.9822313E-1,1.2279185E0,2.8310394E-1,6.123465E-1,1.2346459E-2,1.4323373E0,3.8942674E-1,-2.6082346E-1,5.2891445E-1,-2.660327E-1,-9.6455336E-1,-1.7069576E0,-6.755878E-1,7.00161E-1,-8.6250305E-2,-7.03982E-1,-2.1457139E-1,8.9738965E-1,-1.6691509E-1,-8.3572316E-1,2.3124926E-1,-1.11139305E-1,7.089329E-3,-4.429107E-1,-9.054756E-2],"categories":[],"categories_nodes":[],"categories_segments":[],"categories_sizes":[],"default_left":[0,0,0,0,0,0,0,0,0,0,0,0,0,0,0,0,0,0,0,0,0,0,0,0,0,0,0,0,0,0,0,0,0,0,0,0,0,0,0,0,0,0,0,0,0,0,0,0,0,0,0,0,0,0,0,0,0,0,0,0,0,0,0,0,0,0,0,0,0,0,0,0,0,0,0,0,0,0,0,0,0,0,0,0,0,0,0,0,0,0,0,0,0,0,0,0,0,0,0,0,0,0,0,0,0,0,0,0,0,0,0,0,0,0,0,0,0,0,0,0,0,0,0,0,0,0,0,0,0,0,0,0,0,0,0,0,0,0,0,0,0,0,0,0,0,0,0,0,0,0,0,0,0,0,0,0,0,0,0,0,0,0,0,0,0,0,0,0,0,0,0,0,0,0,0,0,0,0,0,0,0,0,0,0,0,0,0,0,0,0,0,0,0,0,0,0,0,0,0,0,0,0,0,0,0,0,0,0,0,0,0,0,0],"id":3,"left_children":[1,3,5,7,9,11,13,15,17,19,21,23,25,27,-1,29,31,33,35,37,39,41,43,45,47,49,-1,51,-1,-1,53,55,57,59,61,63,65,67,69,71,73,75,77,79,81,83,85,87,-1,-1,89,-1,-1,91,-1,93,-1,95,97,99,101,103,105,-1,-1,-1,107,-1,109,111,-1,-1,-1,113,-1,115,-1,117,119,121,123,125,127,-1,-1,129,131,133,-1,135,-1,-1,-1,-1,137,139,141,143,145,-1,147,149,-1,151,153,155,157,-1,-1,-1,-1,-1,-1,-1,-1,-1,-1,-1,-1,-1,-1,-1,-1,-1,-1,-1,159,161,163,165,-1,167,-1,-1,-1,-1,-1,169,-1,171,-1,173,175,177,-1,-1,-1,-1,-1,-1,-1,179,-1,181,-1,183,185,187,189,-1,-1,191,193,195,197,-1,-1,-1,-1,199,-1,-1,-1,-1,-1,-1,-1,-1,201,-1,-1,203,205,-1,207,-1,-1,-1,-1,-1,-1,-1,-1,-1,-1,-1,-1,209,211,-1,-1,-1,-1,-1,-1,-1,-1,-1,-1,-1,-1,-1,-1],"loss_changes":[1.36266E5,1.00029594E6,2.1189453E3,1.8972191E4,3.101765E5,2.974585E2,2.2217188E2,2.264336E3,2.325539E3,1.6019088E5,2.828482E4,1.7754369E2,4.99209E1,2.2583984E1,0E0,4.3490234E2,2.0557642E2,4.6862646E2,9.082827E2,1.4452828E4,4.6960125E4,6.2740938E3,1.096227E3,4.422429E1,1.1045303E1,1.0140686E0,0E0,1.9736328E0,0E0,0E0,2.4062988E1,1.046604E2,3.9018967E1,2.142937E2,1.5129117E2,3.6403223E2,7.012207E1,1.1747793E3,4.3894688E3,2.834825E4,1.26345625E4,1.1965703E3,1.5385E3,5.9371387E2,3.015044E2,2.322483E-1,4.927887E1,6.0335503E0,0E0,0E0,1.3565186E1,0E0,0E0,5.9174194E1,0E0,2.5115234E1,0E0,2.407769E1,1.8838326E1,6.6812E0,1.2081079E2,3.0425241E1,5.9793854E0,0E0,0E0,0E0,6.0416794E-1,0E0,2.8757812E1,3.402125E3,0E0,0E0,0E0,2.7145E3,0E0,2.431914E2,0E0,6.369785E2,1.8526514E2,1.2010669E2,1.3678101E1,4.182605E1,7.1131516E1,0E0,0E0,4.390518E0,1.4487375E0,2.0688705E0,0E0,3.0427938E0,0E0,0E0,0E0,0E0,7.401001E0,8.162899E-1,7.8439817E0,1.7956268E1,6.249226E0,0E0,2.7381954E0,2.1998138E0,0E0,1.7881174E0,7.655548E0,1.7513107E1,6.4843388E0,0E0,0E0,0E0,0E0,0E0,0E0,0E0,0E0,0E0,0E0,0E0,0E0,0E0,0E0,0E0,0E0,0E0,0E0,0E0,8.875671E0,5.2463913E0,3.434061E0,1.8012585E1,0E0,1.2854699E0,0E0,0E0,0E0,0E0,0E0,3.0936066E1,0E0,8.3020926E-1,0E0,4.535654E0,4.2347664E-1,4.8212795E1,0E0,0E0,0E0,0E0,0E0,0E0,0E0,5.655327E-1,0E0,1.6423656E1,0E0,7.72347E1,2.833969E0,5.4009666E0,1.4623528E0,0E0,0E0,2.5546622E0,5.8400726E-1,6.663648E0,5.4319286E-1,0E0,0E0,0E0,0E0,3.6025864E1,0E0,0E0,0E0,0E0,0E0,0E0,0E0,0E0,7.5219116E0,0E0,0E0,1.1795788E0,1.631088E1,0E0,1.4648014E1,0E0,0E0,0E0,0E0,0E0,0E0,0E0,0E0,0E0,0E0,0E0,0E0,1.2975475E-1,9.1117287E-1,0E0,0E0,0E0,0E0,0E0,0E0,0E0,0E0,0E0,0E0,0E0,0E0,0E0,0E0],"parents":[2147483647,0,0,1,1,2,2,3,3,4,4,5,5,6,6,7,7,8,8,9,9,10,10,11,11,12,12,13,13,15,15,16,16,17,17,18,18,19,19,20,20,21,21,22,22,23,23,24,24,25,25,27,27,30,30,31,31,32,32,33,33,34,34,35,35,36,36,37,37,38,38,39,39,40,40,41,41,42,42,43,43,44,44,45,45,46,46,47,47,50,50,53,53,55,55,57,57,58,58,59,59,60,60,61,61,62,62,66,66,68,68,69,69,73,73,75,75,77,77,78,78,79,79,80,80,81,81,82,82,85,85,86,86,87,87,89,89,94,94,95,95,96,96,97,97,98,98,100,100,101,101,103,103,104,104,105,105,106,106,126,126,127,127,128,128,129,129,131,131,137,137,139,139,141,141,142,142,143,143,151,151,153,153,155,155,156,156,157,157,158,158,161,161,162,162,163,163,164,164,169,169,178,178,181,181,182,182,184,184,197,197,198,198],"right_children":[2,4,6,8,10,12,14,16,18,20,22,24,26,28,-1,30,32,34,36,38,40,42,44,46,48,50,-1,52,-1,-1,54,56,58,60,62,64,66,68,70,72,74,76,78,80,82,84,86,88,-1,-1,90,-1,-1,92,-1,94,-1,96,98,100,102,104,106,-1,-1,-1,108,-1,110,112,-1,-1,-1,114,-1,116,-1,118,120,122,124,126,128,-1,-1,130,132,134,-1,136,-1,-1,-1,-1,138,140,142,144,146,-1,148,150,-1,152,154,156,158,-1,-1,-1,-1,-1,-1,-1,-1,-1,-1,-1,-1,-1,-1,-1,-1,-1,-1,-1,160,162,164,166,-1,168,-1,-1,-1,-1,-1,170,-1,172,-1,174,176,178,-1,-1,-1,-1,-1,-1,-1,180,-1,182,-1,184,186,188,190,-1,-1,192,194,196,198,-1,-1,-1,-1,200,-1,-1,-1,-1,-1,-1,-1,-1,202,-1,-1,204,206,-1,208,-1,-1,-1,-1,-1,-1,-1,-1,-1,-1,-1,-1,210,212,-1,-1,-1,-1,-1,-1,-1,-1,-1,-1,-1,-1,-1,-1],"split_conditions":[5.397071E0,5.351501E0,5.4122605E0,5.3363113E0,5.3768177E0,5.402134E0,5.4628935E0,5.3109946E0,5.346438E0,5.3616276E0,5.3869443E0,5.181818E-1,6.272727E-1,5.422387E0,-3.154842E0,5.2856784E0,5.331248E0,4.090909E-1,5.181818E-1,5.3565645E0,5.181818E-1,5.3818808E0,4.090909E-1,1.3636364E-1,1.0636364E0,8.181818E-2,-2.0129657E0,8.454546E-1,-2.805258E0,-3.0654263E0,3.5454544E-1,9.5454544E-1,4.6363637E-1,1.3636364E-1,5.3413744E0,1.9090909E-1,1.0636364E0,5.7272726E-1,4.090909E-1,1.3636364E-1,5.371754E0,6.818182E-1,4.6363637E-1,5.3920074E0,5.3920074E0,8.181818E-2,3.5454544E-1,1.0090909E0,-1.4933331E0,-1.8394626E0,1.3636364E-1,-2.007761E0,-2.7337072E0,1.9090909E-1,-2.4813592E0,5.321121E0,-2.2932513E0,2.4545455E-1,1.1181818E0,8.181818E-2,5.3413744E0,6.272727E-1,9.5454544E-1,3.041232E0,8.688962E0,3.4365737E0,1.1727272E0,1.4056088E1,1.1727272E0,1.3636364E-1,1.769022E1,2.6517897E1,5.7681087E1,1.0636364E0,2.2021818E1,1.3636364E-1,1.2035356E1,1.3636364E-1,1.1181818E0,8.181818E-2,1.9090909E-1,6.818182E-1,7.909091E-1,-1.1543055E-1,-4.9793074E-1,2.4545455E-1,4.6363637E-1,5.7272726E-1,4.444599E-3,5.4071975E0,-1.1574253E0,-2.3648713E0,-1.3148711E0,-1.6527555E0,7.909091E-1,1.3636364E-1,3.5454544E-1,9E-1,1.1727272E0,1.0256596E-1,5.3413744E0,1.9090909E-1,4.368247E0,5.7272726E-1,1.0636364E0,7.909091E-1,1.1181818E0,5.498276E-1,1.5373708E0,8.186189E0,2.2424664E0,1.1339206E1,3.524901E1,4.0490738E1,2.3044422E1,8.472409E0,2.1458364E1,4.5102234E0,1.4279948E1,6.8779755E0,2.1312616E0,1.4827114E0,7.134216E0,1.1336241E0,2.7646556E0,3.2919364E0,7.909091E-1,5.181818E-1,9E-1,1.9090909E-1,1.9703454E0,4.090909E-1,2.2947808E-1,-1.5302211E-1,-8.148884E-1,1.1983567E-1,-4.340192E-1,5.7272726E-1,-6.5045315E-1,8.181818E-2,-6.408543E-1,3E-1,4.090909E-1,7.3636365E-1,-1.50455E0,3.6777106E-1,-3.8222897E-1,2.017296E-1,1.1047016E0,4.8715785E-1,1.8727342E0,4.6363637E-1,6.832066E-2,8.454546E-1,-7.252841E-1,6.272727E-1,9E-1,1.0636364E0,1.1727272E0,6.505631E-1,1.9118602E0,4.6363637E-1,7.3636365E-1,8.454546E-1,1.0636364E0,1.2105693E0,-1.9193116E-1,9.9436E-2,-2.5190622E-1,1.3636364E-1,-1.7770789E0,-3.1501094E-1,1.0114003E-2,9.894734E-2,9.989474E-1,8.03833E-2,-1.1591692E-1,-1.1107427E0,7.909091E-1,1.6043931E-1,6.9034576E-1,7.3636365E-1,9E-1,1.6105275E0,6.818182E-1,2.2740228E0,5.8051705E-1,4.712494E-1,-1.9822313E-1,1.2279185E0,2.8310394E-1,6.123465E-1,1.2346459E-2,1.4323373E0,3.8942674E-1,-2.6082346E-1,5.2891445E-1,1.0090909E0,1.1181818E0,-1.7069576E0,-6.755878E-1,7.00161E-1,-8.6250305E-2,-7.03982E-1,-2.1457139E-1,8.9738965E-1,-1.6691509E-1,-8.3572316E-1,2.3124926E-1,-1.11139305E-1,7.089329E-3,-4.429107E-1,-9.054756E-2],"split_indices":[1,1,1,1,1,1,1,1,1,1,1,0,0,1,0,1,1,0,0,1,0,1,0,0,0,0,0,0,0,0,0,0,0,0,1,0,0,0,0,0,1,0,0,1,1,0,0,0,0,0,0,0,0,0,0,1,0,0,0,0,1,0,0,0,0,0,0,0,0,0,0,0,0,0,0,0,0,0,0,0,0,0,0,0,0,0,0,0,0,1,0,0,0,0,0,0,0,0,0,0,1,0,0,0,0,0,0,0,0,0,0,0,0,0,0,0,0,0,0,0,0,0,0,0,0,0,0,0,0,0,0,0,0,0,0,0,0,0,0,0,0,0,0,0,0,0,0,0,0,0,0,0,0,0,0,0,0,0,0,0,0,0,0,0,0,0,0,0,0,0,0,0,0,0,0,0,0,0,0,0,0,0,0,0,0,0,0,0,0,0,0,0,0,0,0,0,0,0,0,0,0,0,0,0,0,0,0,0,0,0,0,0,0],"split_type":[0,0,0,0,0,0,0,0,0,0,0,0,0,0,0,0,0,0,0,0,0,0,0,0,0,0,0,0,0,0,0,0,0,0,0,0,0,0,0,0,0,0,0,0,0,0,0,0,0,0,0,0,0,0,0,0,0,0,0,0,0,0,0,0,0,0,0,0,0,0,0,0,0,0,0,0,0,0,0,0,0,0,0,0,0,0,0,0,0,0,0,0,0,0,0,0,0,0,0,0,0,0,0,0,0,0,0,0,0,0,0,0,0,0,0,0,0,0,0,0,0,0,0,0,0,0,0,0,0,0,0,0,0,0,0,0,0,0,0,0,0,0,0,0,0,0,0,0,0,0,0,0,0,0,0,0,0,0,0,0,0,0,0,0,0,0,0,0,0,0,0,0,0,0,0,0,0,0,0,0,0,0,0,0,0,0,0,0,0,0,0,0,0,0,0,0,0,0,0,0,0,0,0,0,0,0,0,0,0,0,0,0,0],"sum_hessian":[1.738E3,9.9E2,7.48E2,7.92E2,1.98E2,6.6E1,6.82E2,7.26E2,6.6E1,1.1E2,8.8E1,2.2E1,4.4E1,2.2E2,4.62E2,6.16E2,1.1E2,4.4E1,2.2E1,4.4E1,6.6E1,4.4E1,4.4E1,9E0,1.3E1,2.2E1,2.2E1,4.4E1,1.76E2,5.06E2,1.1E2,8.8E1,2.2E1,1.4E1,3E1,9E0,1.3E1,2.2E1,2.2E1,2.7E1,3.9E1,2.2E1,2.2E1,1.4E1,3E1,2E0,7E0,1E1,3E0,2E0,2E1,3E1,1.4E1,3E1,8E1,6.8E1,2E1,8E0,1.4E1,4E0,1E1,1.5E1,1.5E1,3E0,6E0,1E1,3E0,1E1,1.2E1,7E0,1.5E1,6E0,2.1E1,2.6E1,1.3E1,1.2E1,1E1,8E0,1.4E1,7E0,7E0,1.5E1,1.5E1,1E0,1E0,4E0,3E0,9E0,1E0,2E0,1.8E1,1.5E1,1.5E1,3.4E1,3.4E1,4E0,4E0,1.2E1,2E0,2E0,2E0,5E0,5E0,4E0,1.1E1,1E1,5E0,2E0,1E0,1.1E1,1E0,2E0,5E0,2E1,6E0,2E0,1E1,2E0,6E0,1.2E1,2E0,1E0,6E0,3E0,4E0,5E0,1E1,7E0,8E0,2E0,2E0,2E0,1E0,1E0,8E0,1E0,1E0,2.8E1,6E0,2E0,2E0,2E0,2E0,8E0,4E0,1E0,1E0,1E0,1E0,1E0,4E0,3E0,1E0,8E0,3E0,7E0,3E0,3E0,2E0,2E0,8E0,2E0,5E0,2E0,6E0,1E0,1E0,1E0,1E0,2E1,8E0,1E0,1E0,1E0,1E0,1E0,1E0,5E0,3E0,1E0,2E0,4E0,4E0,4E0,3E0,2E0,1E0,2E0,1E0,1E0,1E0,1E0,1E0,4E0,1E0,1E0,1E0,3E0,3E0,4E0,1.6E1,1E0,2E0,2E0,2E0,1E0,3E0,1E0,2E0,2E0,1E0,1E0,2E0],"tree_param":{"num_deleted":"0","num_feature":"2","num_nodes":"213","size_leaf_vector":"1"}},{"base_weights":[6.517148E-1,6.2023277E0,-6.693157E0,-5.2881904E0,5.196001E1,-1.8984011E0,-6.9897118E0,-6.363264E0,6.4560885E0,7.7172714E1,1.9931135E1,6.1954725E-1,-3.0555243E0,-6.0244017E0,-2.1898456E0,-6.8156514E0,-3.0437279E0,3.239353E0,1.2469003E1,4.2722435E1,9.915913E1,3.2824577E1,6.5947766E0,2.3278508E0,-1.1661997E0,-1.7108533E0,-1.2186787E0,-4.9496975E0,-6.342727E0,-2.2178192E0,-5.9733105E0,-3.5452852E0,-1.450333E0,6.6819463E0,1.4690866E0,1.6557236E1,1.6495733E0,2.7171118E1,5.6416256E1,1.3235187E2,8.11287E1,4.6459106E1,2.516837E1,1.1919656E1,3.8054874E0,-1.1585712E0,3.6830866E0,-9.9925524E-1,-3.8112804E-1,-7.996752E-1,-2.4081748E0,-1.3514962E0,-2.2819157E0,-5.5077133E0,-2.0248404E0,-5.4150925E0,-2.0652888E0,-2.526972E0,-4.302648E0,-9.272639E-2,-2.1682081E0,1.6447277E0,8.364141E0,-2.914709E-1,3.1378262E0,1.0679622E0,1.7283195E1,3.4993526E1,5.892867E0,7.743109E1,4.238282E1,1.969901E1,4.5976833E1,9.2892944E1,5.326493E1,6.2316637E0,1.6173424E1,9.676368E0,1.6509157E1,1.650772E1,5.8416348E0,6.0402794E0,1.3328526E0,-9.811593E-2,-4.2324117E-1,4.3070097E0,8.452063E-2,2.635399E-1,-1.060659E0,-4.2364758E-2,-1.0450512E0,-3.0397274E0,-3.4234428E-1,-2.051909E0,-4.513668E0,-1.789198E0,-4.802485E0,-4.536139E0,-1.8633263E0,-1.8699983E0,-3.727893E0,-1.3709171E0,1.2040097E0,-2.4954765E0,-2.7309418E-2,2.7350935E-1,2.4677036E0,4.413643E0,1.0920617E1,1.3638146E0,-9.568839E-1,3.5450933E0,1.868199E0,2.0210136E1,3.1500227E0,3.3729599E0,1.1857714E1,9.071365E0,2.6436758E1,1.4011634E1,5.321575E0,6.2833786E1,3.5143887E1,1.6979189E1,5.987677E0,5.2949233E0,1.7050091E0,1.7152559E0,5.74546E0,2.9285278E0,2.101138E0,2.0986843E0,2.5394197E0,2.986201E0,-2.848852E-1,1.9240952E0,1.5762765E0,-1.6550965E0,1.9756366E-1,-2.141204E-1,1.9505626E-1,-1.5055027E0,-4.3844986E-1,-2.5243637E-1,-9.933274E-1,2.9834834E-1,-4.5240328E-1,-9.349599E-1,-5.0305643E0,-1.7290895E0,-4.4582424E0,-1.6533631E0,-1.3989741E0,-8.429664E-1,-2.7403536E0,-2.6445322E0,-1.3734783E0,-5.7591695E-1,-5.126835E-1,2.0738018E0,-6.7118965E-2,-1.668537E0,-1.4087288E0,3.1260538E-1,-3.2489464E-1,1.0089484E-1,2.2184372E-2,1.7147027E-1,9.389964E-1,5.155302E0,5.8606493E-1,3.5651376E0,9.1571105E-1,1.6079807E0,5.8072474E-2,-4.4311184E-1,-5.6209505E-1,2.1892805E0,5.3704453E0,6.616831E-1,2.8541539E0,2.430632E0,6.868739E0,1.9765358E1,2.560913E0,1.1927531E0,1.2541414E0,8.1820583E-1,1.4136412E0,1.1799749E0,1.0174842E0,3.6791658E-1,-6.726055E-1,1.0289841E0,-1.6314125E-1,-6.458257E-1,-7.024364E-1,-1.3006869E-1,-5.4740757E-1,-2.8215408E-2,-2.50373E-1,-1.0218915E0,-1.7304257E0,-2.320974E0,-1.4647069E0,-7.647692E-1,1.3523084E-1,-2.014626E0,-2.9000586E-1,-3.540524E0,-1.5487039E0,-9.1784054E-1,-6.348567E-1,-2.6775944E-1,8.596802E-3,8.410549E-2,8.491053E-1,6.832581E-2,-9.852935E-2,-3.0879242E0,-4.1632652E-1,4.1408387E-1,1.786065E0,1.3637352E-1,5.522766E-1,-1.4696858E0,6.7208445E-1,1.224001E0,-7.214432E-1,1.8192185E0,4.934395E-1,3.769997E-1,-1.6848965E-1,1.043731E0,2.4063836E-1,-8.2246974E-2,6.466107E-1,3.6364117E-1,2.8284964E-1,5.2049446E-1,1.0494232E-2,-2.2169982E-1,9.832217E-1,-8.2781315E-1,-2.4146016E-1,-4.640608E-1,1.7343922E-1,-9.7407535E-2,8.47106E-2,-9.037E-1,-3.8941422E-1,-9.098631E-1,-1.9927503E-1,-1.5063563E-1,4.6107963E-2,-5.4224837E-1,-1.5746197E0,-8.1730574E-1,2.7808344E-1,-6.4263934E-1,5.83045E-1,-3.7198105E-1,-1.1719811E0,1.2336354E-1,-4.970345E-1,-3.9889243E-2,-5.3118753E-1,7.627814E-1,-1.29359E-1,-7.103646E-1,1.849991E-1,-2.3635884E-1,3.6364117E-1,4.4957715E-1,-7.1273805E-3,-8.0142595E-2,-3.7647402E-1,1.7067146E-1,-2.7932855E-1],"categories":[],"categories_nodes":[],"categories_segments":[],"categories_sizes":[],"default_left":[0,0,0,0,0,0,0,0,0,0,0,0,0,0,0,0,0,0,0,0,0,0,0,0,0,0,0,0,0,0,0,0,0,0,0,0,0,0,0,0,0,0,0,0,0,0,0,0,0,0,0,0,0,0,0,0,0,0,0,0,0,0,0,0,0,0,0,0,0,0,0,0,0,0,0,0,0,0,0,0,0,0,0,0,0,0,0,0,0,0,0,0,0,0,0,0,0,0,0,0,0,0,0,0,0,0,0,0,0,0,0,0,0,0,0,0,0,0,0,0,0,0,0,0,0,0,0,0,0,0,0,0,0,0,0,0,0,0,0,0,0,0,0,0,0,0,0,0,0,0,0,0,0,0,0,0,0,0,0,0,0,0,0,0,0,0,0,0,0,0,0,0,0,0,0,0,0,0,0,0,0,0,0,0,0,0,0,0,0,0,0,0,0,0,0,0,0,0,0,0,0,0,0,0,0,0,0,0,0,0,0,0,0,0,0,0,0,0,0,0,0,0,0,0,0,0,0,0,0,0,0,0,0,0,0,0,0,0,0,0,0,0,0,0,0,0,0,0,0,0,0,0,0,0,0,0,0,0,0,0,0,0,0,0,0,0,0,0,0,0,0,0,0,0,0,0,0,0,0],"id":4,"left_children":[1,3,5,7,9,11,13,15,17,19,21,23,25,27,-1,29,31,33,35,37,39,41,43,45,47,49,-1,51,53,-1,55,57,59,61,63,65,-1,67,69,71,73,75,77,79,81,83,85,-1,87,89,91,-1,-1,93,-1,95,-1,97,99,101,103,105,107,109,111,-1,113,115,-1,117,119,-1,-1,121,123,-1,-1,-1,125,127,129,131,133,-1,-1,135,-1,-1,137,139,141,143,145,-1,147,-1,149,151,153,-1,155,157,159,161,163,165,167,169,171,173,175,177,179,181,-1,-1,-1,-1,-1,-1,-1,183,-1,-1,-1,-1,-1,-1,-1,185,-1,-1,187,189,191,193,-1,195,-1,-1,-1,197,199,-1,-1,-1,-1,-1,201,-1,203,-1,205,207,209,211,-1,213,-1,215,217,219,-1,-1,-1,-1,-1,-1,-1,221,-1,-1,-1,223,-1,225,-1,227,229,231,233,-1,-1,-1,-1,-1,235,237,-1,239,-1,241,243,-1,-1,245,-1,-1,-1,247,-1,-1,-1,249,-1,-1,-1,251,253,255,257,-1,259,-1,-1,-1,-1,-1,-1,261,263,-1,-1,-1,-1,265,267,-1,269,-1,-1,-1,-1,-1,-1,-1,-1,-1,271,-1,-1,-1,273,275,277,-1,-1,-1,-1,-1,-1,-1,-1,-1,-1,-1,-1,-1,-1,-1,-1,-1,-1,-1,-1,-1,-1,-1,-1,-1,-1,-1,-1,-1,-1,-1,-1,-1,-1],"loss_changes":[7.0938E4,5.2132222E5,1.0517383E3,1.0053473E4,1.5916119E5,1.33004E2,1.6683984E2,1.0710039E3,1.2555195E3,7.983931E4,1.5087219E4,4.8473705E1,3.5015717E1,2.9157715E1,0E0,2.6645898E2,6.598505E1,2.6442746E2,5.643833E2,8.050164E3,2.9360625E4,3.5281953E3,6.230083E2,4.2066517E1,1.2325767E1,7.6050034E0,0E0,1.8898926E1,7.9970703E0,0E0,9.748047E1,4.0799927E1,2.2214565E1,1.13346985E2,9.1989845E1,7.0572266E1,0E0,6.670703E2,3.5011953E3,2.060625E4,1.01306875E4,1.7515371E3,1.3696895E3,3.2186328E2,1.6324979E2,1.6780043E-1,1.1519653E1,0E0,6.923287E0,1.4423337E0,9.39682E0,0E0,0E0,3.400647E1,0E0,2.8185547E1,0E0,3.288231E1,1.7820557E1,1.656788E1,1.0441582E1,4.9674597E0,6.289325E1,1.8928188E1,1.6502991E0,0E0,4.5891357E1,6.320127E2,0E0,1.3718594E3,8.759551E2,0E0,0E0,1.5239344E4,6.461836E2,0E0,0E0,0E0,9.7254395E1,1.18718994E2,6.57312E0,3.574707E1,4.3645676E1,0E0,0E0,1.1763229E0,0E0,0E0,6.1997547E0,1.8589374E0,1.0157757E0,7.930565E-1,6.174633E0,0E0,6.7094727E0,0E0,2.4279785E0,1.3702667E1,2.0062057E1,0E0,1.6451538E1,3.5945034E-1,5.6672783E0,1.5818481E1,4.5150657E0,1.2731552E-2,1.978344E0,8.7615967E-1,9.197205E0,1.1174002E0,4.821869E0,1.546579E1,5.2488747E0,7.464014E1,0E0,0E0,0E0,0E0,0E0,0E0,0E0,2.0879375E3,0E0,0E0,0E0,0E0,0E0,0E0,0E0,2.0281754E0,0E0,0E0,1.484306E1,1.8561249E0,2.5254035E0,1.30140915E1,0E0,1.2587118E0,0E0,0E0,0E0,2.3533726E-1,6.2647146E-1,0E0,0E0,0E0,0E0,0E0,5.508545E0,0E0,4.9400146E1,0E0,7.532154E0,7.8382063E0,6.912575E0,1.1399872E1,0E0,5.99826E-1,0E0,3.277007E0,3.0596173E-1,1.8265505E1,0E0,0E0,0E0,0E0,0E0,0E0,0E0,3.8360443E0,0E0,0E0,0E0,2.3785686E-1,0E0,1.1291236E1,0E0,4.6970463E1,3.6251068E-1,3.617188E0,1.056551E0,0E0,0E0,0E0,0E0,0E0,4.7229404E0,5.0072193E-1,0E0,1.845747E0,0E0,3.4509645E0,2.0161843E-1,0E0,0E0,4.202807E0,0E0,0E0,0E0,3.679253E-1,0E0,0E0,0E0,5.2835693E0,0E0,0E0,0E0,3.4854965E0,1.0183153E0,1.123558E1,2.289877E1,0E0,1.970826E1,0E0,0E0,0E0,0E0,0E0,0E0,2.720604E0,7.8669553E0,0E0,0E0,0E0,0E0,1.7759314E0,1.1414909E1,0E0,1.0272629E1,0E0,0E0,0E0,0E0,0E0,0E0,0E0,0E0,0E0,3.9399972E0,0E0,0E0,0E0,1.5925004E0,6.2261105E-1,2.2062726E0,0E0,0E0,0E0,0E0,0E0,0E0,0E0,0E0,0E0,0E0,0E0,0E0,0E0,0E0,0E0,0E0,0E0,0E0,0E0,0E0,0E0,0E0,0E0,0E0,0E0,0E0,0E0,0E0,0E0,0E0,0E0,0E0,0E0,0E0],"parents":[2147483647,0,0,1,1,2,2,3,3,4,4,5,5,6,6,7,7,8,8,9,9,10,10,11,11,12,12,13,13,15,15,16,16,17,17,18,18,19,19,20,20,21,21,22,22,23,23,24,24,25,25,27,27,28,28,30,30,31,31,32,32,33,33,34,34,35,35,37,37,38,38,39,39,40,40,41,41,42,42,43,43,44,44,45,45,46,46,48,48,49,49,50,50,53,53,55,55,57,57,58,58,59,59,60,60,61,61,62,62,63,63,64,64,66,66,67,67,69,69,70,70,73,73,74,74,78,78,79,79,80,80,81,81,82,82,85,85,88,88,89,89,90,90,91,91,92,92,94,94,96,96,97,97,98,98,100,100,101,101,102,102,103,103,104,104,105,105,106,106,107,107,108,108,109,109,110,110,111,111,112,112,113,113,121,121,129,129,132,132,133,133,134,134,135,135,137,137,141,141,142,142,148,148,150,150,152,152,153,153,154,154,155,155,157,157,159,159,160,160,161,161,169,169,173,173,175,175,177,177,178,178,179,179,180,180,186,186,187,187,189,189,191,191,192,192,195,195,199,199,203,203,207,207,208,208,209,209,210,210,212,212,219,219,220,220,225,225,226,226,228,228,238,238,242,242,243,243,244,244],"right_children":[2,4,6,8,10,12,14,16,18,20,22,24,26,28,-1,30,32,34,36,38,40,42,44,46,48,50,-1,52,54,-1,56,58,60,62,64,66,-1,68,70,72,74,76,78,80,82,84,86,-1,88,90,92,-1,-1,94,-1,96,-1,98,100,102,104,106,108,110,112,-1,114,116,-1,118,120,-1,-1,122,124,-1,-1,-1,126,128,130,132,134,-1,-1,136,-1,-1,138,140,142,144,146,-1,148,-1,150,152,154,-1,156,158,160,162,164,166,168,170,172,174,176,178,180,182,-1,-1,-1,-1,-1,-1,-1,184,-1,-1,-1,-1,-1,-1,-1,186,-1,-1,188,190,192,194,-1,196,-1,-1,-1,198,200,-1,-1,-1,-1,-1,202,-1,204,-1,206,208,210,212,-1,214,-1,216,218,220,-1,-1,-1,-1,-1,-1,-1,222,-1,-1,-1,224,-1,226,-1,228,230,232,234,-1,-1,-1,-1,-1,236,238,-1,240,-1,242,244,-1,-1,246,-1,-1,-1,248,-1,-1,-1,250,-1,-1,-1,252,254,256,258,-1,260,-1,-1,-1,-1,-1,-1,262,264,-1,-1,-1,-1,266,268,-1,270,-1,-1,-1,-1,-1,-1,-1,-1,-1,272,-1,-1,-1,274,276,278,-1,-1,-1,-1,-1,-1,-1,-1,-1,-1,-1,-1,-1,-1,-1,-1,-1,-1,-1,-1,-1,-1,-1,-1,-1,-1,-1,-1,-1,-1,-1,-1,-1,-1],"split_conditions":[5.397071E0,5.351501E0,5.4071975E0,5.3363113E0,5.3768177E0,4.090909E-1,5.447704E0,5.316058E0,5.346438E0,5.3616276E0,5.3869443E0,5.402134E0,7.909091E-1,5.417324E0,-2.1898456E0,5.2552986E0,5.331248E0,4.090909E-1,7.3636365E-1,5.3565645E0,4.090909E-1,4.090909E-1,4.090909E-1,1.3636364E-1,8.181818E-2,5.402134E0,-1.2186787E0,1.1181818E0,4.6363637E-1,-2.2178192E0,7.909091E-1,5.7272726E-1,4.6363637E-1,1.3636364E-1,5.3413744E0,8.181818E-2,1.6495733E0,5.181818E-1,4.090909E-1,1.3636364E-1,5.371754E0,1.3636364E-1,5.3818808E0,5.3920074E0,5.3920074E0,8.181818E-2,3.5454544E-1,-9.9925524E-1,1.9090909E-1,5.181818E-1,6.818182E-1,-1.3514962E0,-2.2819157E0,1.9090909E-1,-2.0248404E0,5.2856784E0,-2.0652888E0,1.3636364E-1,6.818182E-1,2.4545455E-1,1.1181818E0,8.181818E-2,5.3413744E0,6.272727E-1,9.5454544E-1,1.0679622E0,4.6363637E-1,1.3636364E-1,5.892867E0,1.3636364E-1,1.0636364E0,1.969901E1,4.5976833E1,5.366691E0,1.1181818E0,6.2316637E0,1.6173424E1,9.676368E0,1.1181818E0,1.3636364E-1,1.9090909E-1,1.0090909E0,7.909091E-1,-9.811593E-2,-4.2324117E-1,2.4545455E-1,8.452063E-2,2.635399E-1,3.5454544E-1,4.6363637E-1,6.272727E-1,4.6363637E-1,7.3636365E-1,-2.051909E0,5.4274507E0,-1.789198E0,1.9090909E-1,5.3261847E0,3.5454544E-1,-1.8699983E0,9.5454544E-1,1.3636364E-1,3.5454544E-1,1.0090909E0,1.1727272E0,5.3413744E0,5.3413744E0,3E-1,3.5454544E-1,5.7272726E-1,1.0636364E0,7.909091E-1,1.1181818E0,1.9090909E-1,3.1500227E0,3.3729599E0,1.1857714E1,9.071365E0,2.6436758E1,1.4011634E1,5.321575E0,1.1727272E0,3.5143887E1,1.6979189E1,5.987677E0,5.2949233E0,1.7050091E0,1.7152559E0,5.74546E0,8.181818E-2,2.101138E0,2.0986843E0,1.1727272E0,5.181818E-1,9.5454544E-1,1.9090909E-1,1.5762765E0,3E-1,1.9756366E-1,-2.141204E-1,1.9505626E-1,5.7272726E-1,7.3636365E-1,-2.5243637E-1,-9.933274E-1,2.9834834E-1,-4.5240328E-1,-9.349599E-1,3E-1,-1.7290895E0,3E-1,-1.6533631E0,8.181818E-2,1.9090909E-1,4.6363637E-1,9E-1,-1.3734783E0,8.181818E-2,-5.126835E-1,3E-1,4.090909E-1,6.818182E-1,-1.4087288E0,3.1260538E-1,-3.2489464E-1,1.0089484E-1,2.2184372E-2,1.7147027E-1,9.389964E-1,1.9090909E-1,5.8606493E-1,3.5651376E0,9.1571105E-1,4.6363637E-1,5.8072474E-2,8.454546E-1,-5.6209505E-1,6.272727E-1,9E-1,1.0636364E0,1.1727272E0,2.430632E0,6.868739E0,1.9765358E1,2.560913E0,1.1927531E0,1.3636364E-1,1.0636364E0,1.4136412E0,4.6363637E-1,1.0174842E0,8.454546E-1,1.1181818E0,1.0289841E0,-1.6314125E-1,2.4545455E-1,-7.024364E-1,-1.3006869E-1,-5.4740757E-1,6.818182E-1,-2.50373E-1,-1.0218915E0,-1.7304257E0,2.4545455E-1,-1.4647069E0,-7.647692E-1,1.3523084E-1,5.321121E0,3E-1,5.3261847E0,5.3261847E0,-9.1784054E-1,5.3261847E0,-2.6775944E-1,8.596802E-3,8.410549E-2,8.491053E-1,6.832581E-2,-9.852935E-2,5.7272726E-1,9E-1,4.1408387E-1,1.786065E0,1.3637352E-1,5.522766E-1,6.818182E-1,9E-1,1.224001E0,6.818182E-1,1.8192185E0,4.934395E-1,3.769997E-1,-1.6848965E-1,1.043731E0,2.4063836E-1,-8.2246974E-2,6.466107E-1,3.6364117E-1,1.1181818E0,5.2049446E-1,1.0494232E-2,-2.2169982E-1,9E-1,1.0636364E0,1.1727272E0,-4.640608E-1,1.7343922E-1,-9.7407535E-2,8.47106E-2,-9.037E-1,-3.8941422E-1,-9.098631E-1,-1.9927503E-1,-1.5063563E-1,4.6107963E-2,-5.4224837E-1,-1.5746197E0,-8.1730574E-1,2.7808344E-1,-6.4263934E-1,5.83045E-1,-3.7198105E-1,-1.1719811E0,1.2336354E-1,-4.970345E-1,-3.9889243E-2,-5.3118753E-1,7.627814E-1,-1.29359E-1,-7.103646E-1,1.849991E-1,-2.3635884E-1,3.6364117E-1,4.4957715E-1,-7.1273805E-3,-8.0142595E-2,-3.7647402E-1,1.7067146E-1,-2.7932855E-1],"split_indices":[1,1,1,1,1,0,1,1,1,1,1,1,0,1,0,1,1,0,0,1,0,0,0,0,0,1,0,0,0,0,0,0,0,0,1,0,0,0,0,0,1,0,1,1,1,0,0,0,0,0,0,0,0,0,0,1,0,0,0,0,0,0,1,0,0,0,0,0,0,0,0,0,0,1,0,0,0,0,0,0,0,0,0,0,0,0,0,0,0,0,0,0,0,0,1,0,0,1,0,0,0,0,0,0,0,1,1,0,0,0,0,0,0,0,0,0,0,0,0,0,0,0,0,0,0,0,0,0,0,0,0,0,0,0,0,0,0,0,0,0,0,0,0,0,0,0,0,0,0,0,0,0,0,0,0,0,0,0,0,0,0,0,0,0,0,0,0,0,0,0,0,0,0,0,0,0,0,0,0,0,0,0,0,0,0,0,0,0,0,0,0,0,0,0,0,0,0,0,0,0,0,0,0,0,0,0,0,1,0,1,1,0,1,0,0,0,0,0,0,0,0,0,0,0,0,0,0,0,0,0,0,0,0,0,0,0,0,0,0,0,0,0,0,0,0,0,0,0,0,0,0,0,0,0,0,0,0,0,0,0,0,0,0,0,0,0,0,0,0,0,0,0,0,0,0,0,0,0,0],"split_type":[0,0,0,0,0,0,0,0,0,0,0,0,0,0,0,0,0,0,0,0,0,0,0,0,0,0,0,0,0,0,0,0,0,0,0,0,0,0,0,0,0,0,0,0,0,0,0,0,0,0,0,0,0,0,0,0,0,0,0,0,0,0,0,0,0,0,0,0,0,0,0,0,0,0,0,0,0,0,0,0,0,0,0,0,0,0,0,0,0,0,0,0,0,0,0,0,0,0,0,0,0,0,0,0,0,0,0,0,0,0,0,0,0,0,0,0,0,0,0,0,0,0,0,0,0,0,0,0,0,0,0,0,0,0,0,0,0,0,0,0,0,0,0,0,0,0,0,0,0,0,0,0,0,0,0,0,0,0,0,0,0,0,0,0,0,0,0,0,0,0,0,0,0,0,0,0,0,0,0,0,0,0,0,0,0,0,0,0,0,0,0,0,0,0,0,0,0,0,0,0,0,0,0,0,0,0,0,0,0,0,0,0,0,0,0,0,0,0,0,0,0,0,0,0,0,0,0,0,0,0,0,0,0,0,0,0,0,0,0,0,0,0,0,0,0,0,0,0,0,0,0,0,0,0,0,0,0,0,0,0,0,0,0,0,0,0,0,0,0,0,0,0,0,0,0,0,0,0,0],"sum_hessian":[1.738E3,9.9E2,7.48E2,7.92E2,1.98E2,4.4E1,7.04E2,7.26E2,6.6E1,1.1E2,8.8E1,1.4E1,3E1,1.76E2,5.28E2,6.38E2,8.8E1,4.4E1,2.2E1,4.4E1,6.6E1,4.4E1,4.4E1,7E0,7E0,1.4E1,1.6E1,4.4E1,1.32E2,3.74E2,2.64E2,6.6E1,2.2E1,1.4E1,3E1,1.3E1,9E0,2.2E1,2.2E1,2.1E1,4.5E1,1.4E1,3E1,1.4E1,3E1,2E0,5E0,1E0,6E0,7E0,7E0,4E1,4E0,4.8E1,8.4E1,1.68E2,9.6E1,3E1,3.6E1,8E0,1.4E1,4E0,1E1,1.5E1,1.5E1,1E0,1.2E1,9E0,1.3E1,7E0,1.5E1,6E0,1.5E1,3E1,1.5E1,4E0,1E1,1.5E1,1.5E1,7E0,7E0,1.5E1,1.5E1,1E0,1E0,4E0,1E0,2E0,4E0,2E0,5E0,5E0,2E0,1.8E1,3E1,8.4E1,8.4E1,6E0,2.4E1,6E0,3E1,4E0,4E0,1.2E1,2E0,2E0,2E0,5E0,5E0,4E0,1.1E1,1E1,5E0,7E0,5E0,2E0,7E0,2E0,5E0,1.2E1,3E0,1.5E1,1.5E1,1.3E1,2E0,1.3E1,2E0,2E0,5E0,3E0,4E0,1.1E1,4E0,7E0,8E0,2E0,2E0,3E0,1E0,1E0,1E0,2E0,3E0,1E0,4E0,1E0,1E0,1E1,2E1,1.8E1,6.6E1,4E0,2E0,1.2E1,1.2E1,1.5E1,1.5E1,2E0,2E0,2E0,2E0,1E1,2E0,1E0,1E0,1E0,1E0,1E0,1E0,3E0,2E0,4E0,1E0,3E0,1E0,8E0,3E0,7E0,3E0,3E0,2E0,2E0,5E0,1.4E1,1E0,1E0,2E0,3E0,1E0,2E0,5E0,3E0,5E0,1E0,1E0,2E0,1E0,1E0,1E0,2E0,1E0,8E0,1.2E1,1.2E1,5.4E1,1E0,1E0,3E0,9E0,6E0,6E0,1.2E1,3E0,1E0,1E0,1E0,1E0,1E0,1E0,4E0,6E0,1E0,2E0,1E0,2E0,4E0,4E0,4E0,3E0,2E0,1E0,2E0,1E0,1E0,1E0,1E0,1E0,1E0,2E0,1E0,1E0,1E0,2E0,3E0,2E0,1E0,1E0,1E0,1E0,6E0,6E0,1E0,2E0,6E0,3E0,4E0,2E0,4E0,2E0,2E0,1E0,2E0,2E0,4E0,2E0,1E0,3E0,1E0,3E0,1E0,2E0,1E0,1E0,1E0,1E0,2E0,1E0,1E0,1E0],"tree_param":{"num_deleted":"0","num_feature":"2","num_nodes":"279","size_leaf_vector":"1"}},{"base_weights":[6.087435E-1,4.626154E0,-4.7074947E0,-3.6963382E0,3.776741E1,-1.397859E0,-4.9120708E0,-4.48749E0,4.9434214E0,5.60216E1,1.4576598E1,4.6528828E-1,-2.2542896E0,-4.37565E0,-1.5548986E0,-4.9641137E0,-2.9784102E0,2.5620306E0,9.387733E0,3.1593815E1,7.159218E1,3.1411707E1,8.579822E0,1.8801563E0,-1.0077407E0,-1.3548924E0,-2.9152703E0,-3.545531E0,-1.3624132E0,-1.5667866E0,-4.4806094E0,-3.4096742E0,-1.6375991E0,5.2440705E0,1.1816232E0,1.255559E1,4.013961E0,1.9938198E1,4.1875786E1,1.0073714E2,5.883E1,4.394272E1,6.9548907E0,1.5242887E1,4.983592E0,-9.8478574E-1,2.9992678E0,-8.493668E-1,-3.4278297E-1,-1.8273644E0,-5.538722E-1,-1.4247818E0,-2.3541186E0,-9.559364E-1,-1.7342558E0,-3.9625947E0,-1.4407845E0,-3.0421016E0,-1.2843472E0,-3.6430588E-1,-2.200883E0,1.3980186E0,6.515542E0,-1.885941E-1,2.4779892E0,9.077677E-1,1.3055882E1,1.4419937E0,4.476703E0,2.2323786E1,2.065596E0,5.864028E1,3.0876303E1,4.8778503E1,1.2096585E2,6.555658E1,3.515975E1,5.531595E0,1.4811291E1,1.9068974E1,8.362076E0,8.15512E0,2.1201649E0,-8.3398536E-2,-3.5975504E-1,1.0509995E0,7.184258E-2,7.027728E-1,-9.015598E-1,-7.894127E-1,-2.4998431E0,2.1058273E-2,-3.982397E-1,-1.1271867E0,-1.0785899E0,-1.4210232E0,-3.4964352E0,-1.2332141E0,-2.746586E0,-5.8509964E-1,2.9723682E-2,-2.356994E0,4.181798E-2,2.3248291E-1,2.0975482E0,3.5539196E0,2.5173724E0,1.1040146E0,-7.114649E-1,1.6198254E0,2.9654694E0,1.5309518E1,7.875055E0,9.244486E-1,-2.7555144E-1,1.6591178E0,2.0404158E0,2.7676682E1,5.0684624E0,7.2570925E0,1.9827568E1,1.0131491E1,4.12422E0,1.6978067E1,5.8481755E0,4.1583237E1,1.950354E1,7.5274574E1,1.2547593E1,5.9392657E0,1.19363E1,9.463841E-1,6.015148E0,6.8516237E-1,2.8788426E0,1.141047E1,1.2475185E0,1.0625343E0,5.354594E-1,6.232939E-2,2.5391838E-1,-1.4068317E0,1.6792917E-1,-2.1127176E-1,-4.6529648E-1,-2.1457101E-1,-2.7671857E0,-2.0653763E-1,2.1706676E-1,2.089386E-1,-2.2378745E0,-2.5762818E0,-1.1623344E0,-1.5613693E0,-3.070726E0,-3.2807922E-1,6.6782415E-1,-1.9023477E0,-1.0542355E0,2.9497862E-1,-2.7616054E-1,8.576059E-2,1.8856717E-2,1.4574967E-1,7.98147E-1,4.1587486E0,1.5628408E0,1.297749E0,4.9361516E-2,-1.6869272E0,-3.476797E-1,9.3024033E-1,-6.3635063E-1,1.455375E0,1.7336394E0,1.9445053E0,5.1515546E0,4.941742E0,3.381243E0,3.664907E-1,1.0593287E0,3.5152223E0,1.047263E1,1.5265712E1,2.8161928E1,1.3722045E0,1.2421459E1,1.4845107E0,-4.9008614E-1,-5.4895145E-1,-5.9707093E-1,-1.8200226E-1,1.2275378E-1,-1.1534371E0,-1.1263872E0,5.990722E-1,-7.3728037E-1,-9.294023E-1,1.8039852E-1,-9.729852E-1,-9.695233E-1,-7.103261E-1,-5.98848E-1,-1.4647777E0,-2.7842934E0,1.2468834E-1,-7.1523094E-1,1.8379784E0,-7.249381E-1,-2.840896E0,-6.2021375E-1,3.5197106E-1,1.4288521E0,1.2663919E-1,5.766392E-1,1.159175E-1,4.418213E-1,-3.3905983E-2,-7.2521126E-1,9.1705704E-1,-1.0207179E0,-6.038098E-1,1.4799958E-1,9.7147673E-1,2.4260304E0,2.0375319E0,-3.6875725E-1,1.574604E-1,7.4604037E-3,4.5807314E0,2.1268566E0,1.9777508E0,6.2014294E-1,-1.7038202E-1,-6.8726873E-1,-3.9445153E-1,1.4742337E-1,1.6579771E-1,-1.1055852E-1,3.4656286E-1,-8.534372E-1,-1.3976625E0,1.865799E-1,-5.534284E-1,4.4428684E-2,-2.9104286E-1,-9.033893E-2,-9.070035E-1,-4.2186797E-1,2.7932698E-1,-4.651377E-1,-3.039564E-1,7.148953E-2,1.0535088E-1,7.217394E-1,-3.842992E-1,5.8077052E-2,-4.8619196E-1,-1.0965929E0,4.2539635E-1,-3.692105E-1,-6.541977E-2,6.483639E-1,-1.00253396E-1,-4.3562353E-1,4.3591177E-1,-1.4321595E-1,8.871712E-1,2.0454255E-1,9.555016E-2,7.2740024E-1,-6.7031863E-3,3.8214055E-1,-8.018436E-2,1.8047333E-2,-3.2000285E-1,-6.157227E-2,-3.842783E-2,-5.905203E-1],"categories":[],"categories_nodes":[],"categories_segments":[],"categories_sizes":[],"default_left":[0,0,0,0,0,0,0,0,0,0,0,0,0,0,0,0,0,0,0,0,0,0,0,0,0,0,0,0,0,0,0,0,0,0,0,0,0,0,0,0,0,0,0,0,0,0,0,0,0,0,0,0,0,0,0,0,0,0,0,0,0,0,0,0,0,0,0,0,0,0,0,0,0,0,0,0,0,0,0,0,0,0,0,0,0,0,0,0,0,0,0,0,0,0,0,0,0,0,0,0,0,0,0,0,0,0,0,0,0,0,0,0,0,0,0,0,0,0,0,0,0,0,0,0,0,0,0,0,0,0,0,0,0,0,0,0,0,0,0,0,0,0,0,0,0,0,0,0,0,0,0,0,0,0,0,0,0,0,0,0,0,0,0,0,0,0,0,0,0,0,0,0,0,0,0,0,0,0,0,0,0,0,0,0,0,0,0,0,0,0,0,0,0,0,0,0,0,0,0,0,0,0,0,0,0,0,0,0,0,0,0,0,0,0,0,0,0,0,0,0,0,0,0,0,0,0,0,0,0,0,0,0,0,0,0,0,0,0,0,0,0,0,0,0,0,0,0,0,0,0,0,0,0,0,0,0,0,0,0,0,0,0,0,0,0,0,0,0,0,0,0,0,0,0,0,0,0,0,0],"id":5,"left_children":[1,3,5,7,9,11,13,15,17,19,21,23,25,27,-1,29,31,33,35,37,39,41,43,45,47,49,51,53,-1,-1,55,57,59,61,63,65,67,69,71,73,75,77,-1,79,81,83,85,-1,87,89,91,-1,93,-1,-1,95,-1,97,-1,99,101,103,105,107,109,-1,111,113,115,117,-1,119,121,123,125,127,129,-1,-1,131,133,135,137,-1,-1,-1,-1,139,141,143,145,147,-1,149,-1,-1,151,-1,153,-1,155,157,159,161,163,165,-1,167,169,171,173,175,177,-1,-1,-1,179,181,-1,-1,-1,-1,-1,-1,-1,-1,-1,183,-1,-1,-1,-1,-1,-1,-1,185,-1,-1,187,-1,-1,189,-1,191,-1,-1,193,-1,-1,195,197,199,-1,201,203,205,207,209,-1,-1,-1,-1,-1,-1,-1,211,213,215,-1,217,219,-1,221,-1,223,-1,-1,225,-1,227,-1,-1,-1,-1,-1,-1,229,231,233,235,-1,-1,237,-1,239,-1,241,-1,-1,-1,243,-1,245,-1,247,249,251,253,255,257,259,-1,-1,-1,-1,-1,-1,-1,-1,261,263,-1,-1,265,267,-1,-1,-1,-1,-1,-1,269,271,273,275,-1,-1,-1,-1,-1,-1,277,-1,-1,-1,-1,-1,-1,-1,-1,-1,-1,-1,-1,-1,-1,-1,-1,-1,-1,-1,-1,-1,-1,-1,-1,-1,-1,-1,-1,-1,-1,-1,-1,-1,-1,-1,-1,-1],"loss_changes":[3.716249E4,2.734751E5,5.0025977E2,5.442627E3,8.342594E4,7.285343E1,7.97793E1,5.0811914E2,6.850525E2,3.99575E4,8.715613E3,3.3156834E1,1.4479126E1,1.7328613E1,0E0,4.546875E1,9.676538E1,1.6040732E2,3.4113916E2,4.557996E3,1.89945E4,1.3529082E3,1.5294834E3,2.8603155E1,8.729814E0,4.664768E0,6.3152466E0,1.7698914E1,0E0,0E0,1.4163086E1,2.9580566E1,3.1473373E1,6.424335E1,5.5532734E1,2.724121E1,5.4461975E0,5.624863E2,2.430625E3,1.4069531E4,5.4968125E3,1.9720508E2,0E0,4.4605566E2,3.913745E2,1.2123585E-1,7.5077057E0,0E0,4.7232184E0,4.3086014E0,3.1412916E0,0E0,1.8790108E1,0E0,0E0,1.3030151E1,0E0,1.934137E1,0E0,9.432088E0,1.0951981E1,3.5889883E0,3.1284454E1,1.1599344E1,1.8898621E0,0E0,3.1220947E1,1.4440491E1,9.252426E0,8.4552734E1,0E0,4.548789E2,3.292295E2,4.9879297E2,3.8236562E3,5.384578E3,1.3653711E2,0E0,0E0,1.5543164E2,5.309265E1,2.2577637E2,5.44246E1,0E0,0E0,0E0,0E0,3.7430882E-2,4.4793224E0,1.8738098E0,4.0631104E-1,2.9903085E0,0E0,1.3823744E1,0E0,0E0,9.148926E0,0E0,2.5555359E1,0E0,3.1871839E0,8.571304E0,3.6231322E0,9.1985315E-3,1.4293556E0,7.2611237E-1,0E0,6.965151E-1,3.6717935E0,2.8703934E1,1.249633E1,2.0220337E1,4.067444E0,0E0,0E0,0E0,8.687031E0,5.1431006E2,0E0,0E0,0E0,0E0,0E0,0E0,0E0,0E0,0E0,6.5631094E3,0E0,0E0,0E0,0E0,0E0,0E0,0E0,1.9211426E1,0E0,0E0,1.3380377E1,0E0,0E0,9.094219E-1,0E0,6.027696E-1,0E0,0E0,2.7418041E0,0E0,0E0,9.93133E0,1.4073378E1,1.7218094E1,0E0,1.3329155E1,1.8062988E1,1.6667886E0,9.4811535E0,2.5914955E1,0E0,0E0,0E0,0E0,0E0,0E0,0E0,1.6261444E0,4.181466E-1,6.885481E-2,0E0,3.1757402E0,9.448217E0,0E0,7.212276E0,0E0,1.3371696E0,0E0,0E0,6.5430466E1,0E0,1.4926347E-1,0E0,0E0,0E0,0E0,0E0,0E0,2.8400513E1,1.7578974E0,3.241824E-1,3.036527E0,0E0,0E0,8.372849E-1,0E0,1.5048438E1,0E0,4.4596534E0,0E0,0E0,0E0,7.12048E0,0E0,8.1327343E-1,0E0,1.3867096E1,8.197823E0,1.6619945E0,1.6878738E0,1.7802566E0,6.995369E0,1.5432392E1,0E0,0E0,0E0,0E0,0E0,0E0,0E0,0E0,6.120366E0,1.5877709E0,0E0,0E0,4.1822515E0,7.6335716E-1,0E0,0E0,0E0,0E0,0E0,0E0,2.1939278E0,1.7083306E0,1.0543551E-1,5.12614E-1,0E0,0E0,0E0,0E0,0E0,0E0,1.9216385E0,0E0,0E0,0E0,0E0,0E0,0E0,0E0,0E0,0E0,0E0,0E0,0E0,0E0,0E0,0E0,0E0,0E0,0E0,0E0,0E0,0E0,0E0,0E0,0E0,0E0,0E0,0E0,0E0,0E0,0E0,0E0,0E0,0E0,0E0,0E0,0E0,0E0],"parents":[2147483647,0,0,1,1,2,2,3,3,4,4,5,5,6,6,7,7,8,8,9,9,10,10,11,11,12,12,13,13,15,15,16,16,17,17,18,18,19,19,20,20,21,21,22,22,23,23,24,24,25,25,26,26,27,27,30,30,31,31,32,32,33,33,34,34,35,35,36,36,37,37,38,38,39,39,40,40,41,41,43,43,44,44,45,45,46,46,48,48,49,49,50,50,52,52,55,55,57,57,59,59,60,60,61,61,62,62,63,63,64,64,66,66,67,67,68,68,69,69,71,71,72,72,73,73,74,74,75,75,76,76,79,79,80,80,81,81,82,82,87,87,88,88,89,89,90,90,91,91,93,93,96,96,98,98,100,100,101,101,102,102,103,103,104,104,105,105,107,107,108,108,109,109,110,110,111,111,112,112,116,116,117,117,127,127,135,135,138,138,141,141,143,143,146,146,149,149,150,150,151,151,153,153,154,154,155,155,156,156,157,157,165,165,166,166,167,167,169,169,170,170,172,172,174,174,177,177,179,179,186,186,187,187,188,188,189,189,192,192,194,194,196,196,200,200,202,202,204,204,205,205,206,206,207,207,208,208,209,209,210,210,219,219,220,220,223,223,224,224,231,231,232,232,233,233,234,234,241,241],"right_children":[2,4,6,8,10,12,14,16,18,20,22,24,26,28,-1,30,32,34,36,38,40,42,44,46,48,50,52,54,-1,-1,56,58,60,62,64,66,68,70,72,74,76,78,-1,80,82,84,86,-1,88,90,92,-1,94,-1,-1,96,-1,98,-1,100,102,104,106,108,110,-1,112,114,116,118,-1,120,122,124,126,128,130,-1,-1,132,134,136,138,-1,-1,-1,-1,140,142,144,146,148,-1,150,-1,-1,152,-1,154,-1,156,158,160,162,164,166,-1,168,170,172,174,176,178,-1,-1,-1,180,182,-1,-1,-1,-1,-1,-1,-1,-1,-1,184,-1,-1,-1,-1,-1,-1,-1,186,-1,-1,188,-1,-1,190,-1,192,-1,-1,194,-1,-1,196,198,200,-1,202,204,206,208,210,-1,-1,-1,-1,-1,-1,-1,212,214,216,-1,218,220,-1,222,-1,224,-1,-1,226,-1,228,-1,-1,-1,-1,-1,-1,230,232,234,236,-1,-1,238,-1,240,-1,242,-1,-1,-1,244,-1,246,-1,248,250,252,254,256,258,260,-1,-1,-1,-1,-1,-1,-1,-1,262,264,-1,-1,266,268,-1,-1,-1,-1,-1,-1,270,272,274,276,-1,-1,-1,-1,-1,-1,278,-1,-1,-1,-1,-1,-1,-1,-1,-1,-1,-1,-1,-1,-1,-1,-1,-1,-1,-1,-1,-1,-1,-1,-1,-1,-1,-1,-1,-1,-1,-1,-1,-1,-1,-1,-1,-1],"split_conditions":[5.397071E0,5.351501E0,5.4071975E0,5.3363113E0,5.3768177E0,4.090909E-1,5.4628935E0,5.295805E0,5.346438E0,5.3616276E0,5.3818808E0,5.402134E0,7.909091E-1,5.417324E0,-1.5548986E0,5.250235E0,5.3261847E0,4.090909E-1,7.3636365E-1,5.3565645E0,3.5454544E-1,4.090909E-1,5.3869443E0,1.3636364E-1,8.181818E-2,6.272727E-1,8.454546E-1,1.1181818E0,-1.3624132E0,-1.5667866E0,5.181818E-1,9E-1,4.090909E-1,1.3636364E-1,5.3413744E0,8.181818E-2,8.454546E-1,1.0090909E0,4.090909E-1,1.3636364E-1,1.0090909E0,1.3636364E-1,6.9548907E0,7.3636365E-1,5.7272726E-1,8.181818E-2,3.5454544E-1,-8.493668E-1,1.9090909E-1,5.402134E0,7.3636365E-1,-1.4247818E0,1.0636364E0,-9.559364E-1,-1.7342558E0,1.9090909E-1,-1.4407845E0,1.9090909E-1,-1.2843472E0,8.181818E-2,1.1727272E0,8.181818E-2,5.3413744E0,6.272727E-1,7.909091E-1,9.077677E-1,4.6363637E-1,7.909091E-1,1.0636364E0,4.090909E-1,2.065596E0,1.3636364E-1,1.0636364E0,5.371754E0,5.371754E0,5.371754E0,5.366691E0,5.531595E0,1.4811291E1,8.181818E-2,8.454546E-1,5.3920074E0,5.3920074E0,-8.3398536E-2,-3.5975504E-1,1.0509995E0,7.184258E-2,1.3636364E-1,3.5454544E-1,5.7272726E-1,4.6363637E-1,6.818182E-1,-3.982397E-1,5.402134E0,-1.0785899E0,-1.4210232E0,3E-1,-1.2332141E0,3.5454544E-1,-5.8509964E-1,3E-1,1.0090909E0,5.331248E0,5.3413744E0,5.3413744E0,3E-1,2.5173724E0,5.7272726E-1,7.3636365E-1,6.272727E-1,9E-1,1.9090909E-1,6.818182E-1,9.244486E-1,-2.7555144E-1,1.6591178E0,1.1727272E0,1.9090909E-1,5.0684624E0,7.2570925E0,1.9827568E1,1.0131491E1,4.12422E0,1.6978067E1,5.8481755E0,4.1583237E1,1.950354E1,5.366691E0,1.2547593E1,5.9392657E0,1.19363E1,9.463841E-1,6.015148E0,6.8516237E-1,2.8788426E0,1.3636364E-1,1.2475185E0,1.0625343E0,9E-1,6.232939E-2,2.5391838E-1,3E-1,1.6792917E-1,4.6363637E-1,-4.6529648E-1,-2.1457101E-1,5.181818E-1,-2.0653763E-1,2.1706676E-1,9E-1,1.0090909E0,5.280615E0,-1.1623344E0,5.3109946E0,4.090909E-1,5.331248E0,3.5454544E-1,7.3636365E-1,-1.0542355E0,2.9497862E-1,-2.7616054E-1,8.576059E-2,1.8856717E-2,1.4574967E-1,7.98147E-1,1.9090909E-1,3.5454544E-1,4.6363637E-1,4.9361516E-2,6.818182E-1,9E-1,9.3024033E-1,6.818182E-1,1.455375E0,1.1181818E0,1.9445053E0,5.1515546E0,6.272727E-1,3.381243E0,1.1181818E0,1.0593287E0,3.5152223E0,1.047263E1,1.5265712E1,2.8161928E1,1.3722045E0,3.5454544E-1,7.3636365E-1,1.0636364E0,2.4545455E-1,-5.9707093E-1,-1.8200226E-1,5.181818E-1,-1.1534371E0,5.7272726E-1,5.990722E-1,1.0090909E0,-9.294023E-1,1.8039852E-1,-9.729852E-1,2.4545455E-1,-7.103261E-1,2.4545455E-1,-1.4647777E0,5.321121E0,2.4545455E-1,2.4545455E-1,5.331248E0,5.331248E0,5.7272726E-1,7.909091E-1,3.5197106E-1,1.4288521E0,1.2663919E-1,5.766392E-1,1.159175E-1,4.418213E-1,-3.3905983E-2,-7.2521126E-1,8.454546E-1,1.0636364E0,-6.038098E-1,1.4799958E-1,1.0636364E0,1.1727272E0,2.0375319E0,-3.6875725E-1,1.574604E-1,7.4604037E-3,4.5807314E0,2.1268566E0,6.272727E-1,8.454546E-1,1.0090909E0,1.1181818E0,-3.9445153E-1,1.4742337E-1,1.6579771E-1,-1.1055852E-1,3.4656286E-1,-8.534372E-1,9.5454544E-1,1.865799E-1,-5.534284E-1,4.4428684E-2,-2.9104286E-1,-9.033893E-2,-9.070035E-1,-4.2186797E-1,2.7932698E-1,-4.651377E-1,-3.039564E-1,7.148953E-2,1.0535088E-1,7.217394E-1,-3.842992E-1,5.8077052E-2,-4.8619196E-1,-1.0965929E0,4.2539635E-1,-3.692105E-1,-6.541977E-2,6.483639E-1,-1.00253396E-1,-4.3562353E-1,4.3591177E-1,-1.4321595E-1,8.871712E-1,2.0454255E-1,9.555016E-2,7.2740024E-1,-6.7031863E-3,3.8214055E-1,-8.018436E-2,1.8047333E-2,-3.2000285E-1,-6.157227E-2,-3.842783E-2,-5.905203E-1],"split_indices":[1,1,1,1,1,0,1,1,1,1,1,1,0,1,0,1,1,0,0,1,0,0,1,0,0,0,0,0,0,0,0,0,0,0,1,0,0,0,0,0,0,0,0,0,0,0,0,0,0,1,0,0,0,0,0,0,0,0,0,0,0,0,1,0,0,0,0,0,0,0,0,0,0,1,1,1,1,0,0,0,0,1,1,0,0,0,0,0,0,0,0,0,0,1,0,0,0,0,0,0,0,0,1,1,1,0,0,0,0,0,0,0,0,0,0,0,0,0,0,0,0,0,0,0,0,0,0,1,0,0,0,0,0,0,0,0,0,0,0,0,0,0,0,0,0,0,0,0,0,0,0,1,0,1,0,1,0,0,0,0,0,0,0,0,0,0,0,0,0,0,0,0,0,0,0,0,0,0,0,0,0,0,0,0,0,0,0,0,0,0,0,0,0,0,0,0,0,0,0,0,0,0,0,0,1,0,0,1,1,0,0,0,0,0,0,0,0,0,0,0,0,0,0,0,0,0,0,0,0,0,0,0,0,0,0,0,0,0,0,0,0,0,0,0,0,0,0,0,0,0,0,0,0,0,0,0,0,0,0,0,0,0,0,0,0,0,0,0,0,0,0,0,0,0,0,0,0,0,0],"split_type":[0,0,0,0,0,0,0,0,0,0,0,0,0,0,0,0,0,0,0,0,0,0,0,0,0,0,0,0,0,0,0,0,0,0,0,0,0,0,0,0,0,0,0,0,0,0,0,0,0,0,0,0,0,0,0,0,0,0,0,0,0,0,0,0,0,0,0,0,0,0,0,0,0,0,0,0,0,0,0,0,0,0,0,0,0,0,0,0,0,0,0,0,0,0,0,0,0,0,0,0,0,0,0,0,0,0,0,0,0,0,0,0,0,0,0,0,0,0,0,0,0,0,0,0,0,0,0,0,0,0,0,0,0,0,0,0,0,0,0,0,0,0,0,0,0,0,0,0,0,0,0,0,0,0,0,0,0,0,0,0,0,0,0,0,0,0,0,0,0,0,0,0,0,0,0,0,0,0,0,0,0,0,0,0,0,0,0,0,0,0,0,0,0,0,0,0,0,0,0,0,0,0,0,0,0,0,0,0,0,0,0,0,0,0,0,0,0,0,0,0,0,0,0,0,0,0,0,0,0,0,0,0,0,0,0,0,0,0,0,0,0,0,0,0,0,0,0,0,0,0,0,0,0,0,0,0,0,0,0,0,0,0,0,0,0,0,0,0,0,0,0,0,0,0,0,0,0,0,0],"sum_hessian":[1.738E3,9.9E2,7.48E2,7.92E2,1.98E2,4.4E1,7.04E2,7.26E2,6.6E1,1.1E2,8.8E1,1.4E1,3E1,2.42E2,4.62E2,5.5E2,1.76E2,4.4E1,2.2E1,4.4E1,6.6E1,2.2E1,6.6E1,7E0,7E0,1.4E1,1.6E1,4.4E1,1.98E2,3.52E2,1.98E2,1.32E2,4.4E1,1.4E1,3E1,1.3E1,9E0,2.2E1,2.2E1,1.8E1,4.8E1,7E0,1.5E1,2.2E1,4.4E1,2E0,5E0,1E0,6E0,8E0,6E0,2E0,1.4E1,4E1,4E0,8.1E1,1.17E2,9.6E1,3.6E1,1.4E1,3E1,4E0,1E1,1.5E1,1.5E1,1E0,1.2E1,2E0,7E0,1.8E1,4E0,7E0,1.5E1,6E0,1.2E1,3.6E1,1.2E1,2E0,5E0,1.3E1,9E0,2E1,2.4E1,1E0,1E0,4E0,1E0,2E0,4E0,4E0,4E0,4E0,2E0,8E0,6E0,2.7E1,5.4E1,1.8E1,7.8E1,2E0,1.2E1,2.8E1,2E0,2E0,2E0,5E0,5E0,4E0,1.1E1,7E0,8E0,7E0,5E0,1E0,1E0,4E0,3E0,7E0,1.1E1,2E0,5E0,1.2E1,3E0,4E0,2E0,8E0,4E0,2.4E1,1.2E1,4E0,8E0,1E0,1.2E1,2E0,7E0,1E1,1E1,1.2E1,1.2E1,1E0,1E0,3E0,1E0,3E0,1E0,1E0,3E0,2E0,2E0,4E0,4E0,1.8E1,3.6E1,1.8E1,6E1,8E0,4E0,2.2E1,6E0,1E0,1E0,1E0,1E0,1E0,1E0,3E0,2E0,3E0,1E0,2E0,9E0,4E0,3E0,2E0,6E0,2E0,5E0,4E0,1E0,2E0,1E0,3E0,4E0,1.2E1,1.2E1,2E0,8E0,6E0,6E0,2E0,1E0,1E0,2E0,1E0,2E0,1E0,3E0,3E0,1E0,1.2E1,6E0,9E0,9E0,6E0,5.4E1,4E0,4E0,2E0,2E0,1.2E1,1E1,1E0,2E0,1E0,1E0,1E0,2E0,1E0,1E0,3E0,6E0,1E0,2E0,4E0,2E0,3E0,1E0,1E0,1E0,4E0,4E0,3E0,3E0,3E0,3E0,1E0,1E0,1E0,1E0,1E0,1E0,2E0,1E0,3E0,3E0,3E0,6E0,4.5E1,9E0,3E0,1E0,3E0,1E0,1E0,1E0,1E0,1E0,6E0,6E0,2E0,8E0,2E0,1E0,3E0,3E0,3E0,1E0,1E0,1E0,1E0,2E0,2E0,1E0,2E0,1E0,1E0,2E0,1E0,1E0],"tree_param":{"num_deleted":"0","num_feature":"2","num_nodes":"279","size_leaf_vector":"1"}},{"base_weights":[5.7931846E-1,3.5193357E0,-3.3113844E0,-2.5757027E0,2.7789919E1,-1.1224996E0,-3.4464033E0,-3.1639946E0,3.8461466E0,3.8391956E1,6.3293076E0,2.9039523E-1,-1.7699487E0,-3.1451328E0,-1.1109403E0,-3.487716E0,-2.1383755E0,1.9991825E0,7.292548E0,5.664477E1,3.103375E1,1.112765E1,3.73617E0,1.4010706E0,-8.5657954E-1,-1.133439E0,-2.295837E0,-3.0504324E0,-1.1889563E0,-1.0980821E0,-3.1640956E0,-2.3343158E0,-7.2493553E-1,4.074182E0,9.306606E-1,9.72133E0,3.1629982E0,3.3474205E1,7.683403E1,1.1033115E1,3.484828E1,1.8141788E1,8.171401E0,5.792317E0,1.1104629E0,-8.370679E-1,2.286628E0,-7.2196174E-1,-2.9136547E-1,-7.381328E-1,-2.1348243E0,-1.8238536E-1,-7.1034974E-1,-2.3892708E0,-9.61537E-1,-2.907165E0,-1.0703223E0,-2.1402342E0,-3.410343E0,7.542653E-2,-1.1568238E0,1.1883167E0,5.015559E0,-1.3857532E-1,1.9417303E0,7.7160245E-1,1.0073431E1,1.2256941E0,3.4941125E0,2.724297E0,3.7480373E1,1.2783776E1,8.9350655E1,3.7245867E0,1.5698525E0,4.2025314E1,2.3135468E1,1.6656929E0,6.9145355E0,9.222064E0,1.0785792E0,8.237671E0,2.9014E0,2.013038E0,1.06936716E-1,-7.088871E-2,-3.0579185E-1,2.662532E0,6.1066248E-2,5.973568E-1,-7.663258E-1,-1.1648573E0,1.775978E-1,-7.359532E-1,-1.7696486E-1,-1.0580399E0,-2.2696261E0,-1.0553812E0,-2.774029E0,-3.0318215E0,-2.0109506E0,-1.1805489E0,-2.3870425E0,-8.146168E-1,9.503845E-1,-1.431778E0,4.2025247E-1,1.9761086E-1,1.782917E0,6.2131453E0,7.007481E-1,8.942299E-1,-5.5736285E-1,1.1931815E0,2.391359E0,1.1996384E1,2.0134254E0,7.8578115E-1,-2.3421879E-1,1.2609292E0,1.7343531E0,4.5850273E1,6.0507097E0,3.3091E1,1.669008E1,2.9948767E1,6.299594E1,2.6580765E1,4.148533E0,2.0969011E-1,2.9471762E0,9.588718E0,1.5189991E0,3.668955E0,1.7193593E0,-3.7264252E-1,2.5845938E0,8.0428696E-1,-4.0644726E-1,9.3481445E-1,1.0508218E0,5.2979853E-2,2.1583071E-1,-1.195807E0,1.4273988E-1,-5.572529E-1,-9.0385383E-1,5.092115E-1,-6.266885E-1,-1.6742183E0,-2.5623112E0,-6.7678857E-1,-8.751302E-1,-9.742088E-1,-1.087204E0,-1.2133552E0,-2.2405083E0,-7.657156E-1,-8.917528E-1,-1.9317691E-1,-3.4935534E-1,1.4983202E0,8.565394E-2,-8.592505E-1,-3.053786E0,4.2384997E-1,-2.3473635E-1,7.289658E-2,1.602831E-2,1.2388745E-1,6.7842525E-1,7.0167357E-1,2.188517E0,3.1435764E-1,4.195719E-2,-1.4338881E0,-2.3866901E-1,7.069826E-1,-5.593977E-1,1.1642998E0,1.4113191E0,1.5556046E0,4.1051188E0,3.115171E-1,9.004292E-1,7.95519E0,2.0466125E1,1.0380648E1,5.2489004E0,2.0163286E1,9.748325E0,9.331158E0,5.952783E0,1.0977634E0,3.2866056E0,1.5536098E0,1.4601185E0,6.674957E-1,7.0241493E-1,1.4115544E-1,-3.0884457E-1,3.3437896E0,1.3084793E0,3.105568E-1,3.0528894E-1,-2.206405E-1,-2.281932E-1,7.1698666E-1,-2.9632017E-1,-4.6660867E-1,-5.075103E-1,-3.0608496E-2,-7.276996E-1,-1.1880131E0,1.585928E-1,-1.8382431E0,-4.765463E-1,-8.157602E-1,-1.50147E0,-5.622889E-1,7.304707E-2,-1.6720641E0,-8.217282E-3,-3.445897E0,-2.100701E0,-3.0314314E-1,-3.4730276E-1,-1.398305E-1,5.2900888E-2,6.076584E-2,6.134783E-1,4.9365237E-2,-1.0820962E-2,-1.8372253E0,-3.7946973E-2,-1.1371019E0,-2.3710185E-1,-2.882023E-2,-6.1642945E-1,4.857482E-1,-6.2500125E-1,-5.132384E-1,1.1839982E-1,7.3857194E-1,2.062125E0,1.3384151E-1,6.3411715E-3,8.267121E-1,2.3434193E-1,3.8580325E-1,-1.782074E-1,2.5196058E-1,1.1279409E0,-1.0142517E-1,1.0422146E0,-1.8743935E-1,3.248194E-1,-4.7051087E-1,1.5430671E-1,-3.3528388E-1,1.2530994E-1,-1.5470181E-1,1.4092799E-1,-1.087726E0,-2.7575493E-1,-3.266373E-2,-5.0194216E-1,-8.992901E-1,-6.6072893E-1,-5.1429063E-1,5.07473E-1,3.3613244E-1,-2.774323E0,-6.395636E-1,-3.1807315E-1,1.4066231E-1,-1.4509964E-1,-1.3021809E0,-6.122859E-1,-4.4157258E-1,-6.852076E-1,1.4685689E-1,-3.0314314E-1,-2.0034638E-1,-7.1826637E-1,3.1705326E-1,-2.0616966E-1,-5.6425184E-1,-6.987498E-2,3.3783132E-1,-1.2173367E-1,7.540953E-1,1.7386094E-1,-2.5703776E-1,3.624916E-1,1.4971505E-1,-1.403801E-1,-4.0440418E-2,-2.7200234E-1,-9.39746E-2,-3.9550212E-1,-8.247948E-3,-1.5308104E-1,-5.062694E-1,2.1427919E-1,2.8843977E-2,1.9951887E-1,-1.1163521E0,-2.7080938E-1],"categories":[],"categories_nodes":[],"categories_segments":[],"categories_sizes":[],"default_left":[0,0,0,0,0,0,0,0,0,0,0,0,0,0,0,0,0,0,0,0,0,0,0,0,0,0,0,0,0,0,0,0,0,0,0,0,0,0,0,0,0,0,0,0,0,0,0,0,0,0,0,0,0,0,0,0,0,0,0,0,0,0,0,0,0,0,0,0,0,0,0,0,0,0,0,0,0,0,0,0,0,0,0,0,0,0,0,0,0,0,0,0,0,0,0,0,0,0,0,0,0,0,0,0,0,0,0,0,0,0,0,0,0,0,0,0,0,0,0,0,0,0,0,0,0,0,0,0,0,0,0,0,0,0,0,0,0,0,0,0,0,0,0,0,0,0,0,0,0,0,0,0,0,0,0,0,0,0,0,0,0,0,0,0,0,0,0,0,0,0,0,0,0,0,0,0,0,0,0,0,0,0,0,0,0,0,0,0,0,0,0,0,0,0,0,0,0,0,0,0,0,0,0,0,0,0,0,0,0,0,0,0,0,0,0,0,0,0,0,0,0,0,0,0,0,0,0,0,0,0,0,0,0,0,0,0,0,0,0,0,0,0,0,0,0,0,0,0,0,0,0,0,0,0,0,0,0,0,0,0,0,0,0,0,0,0,0,0,0,0,0,0,0,0,0,0,0,0,0,0,0,0,0,0,0,0,0,0,0,0,0,0,0,0,0,0,0,0,0,0,0,0,0,0,0,0,0,0,0],"id":6,"left_children":[1,3,5,7,9,11,13,15,17,19,21,23,25,27,-1,29,31,33,35,37,39,41,43,45,47,49,51,53,-1,-1,55,57,59,61,63,65,67,69,71,73,75,77,79,81,83,85,87,-1,89,91,93,-1,-1,95,-1,97,-1,99,101,103,105,107,109,111,113,-1,115,117,119,-1,121,-1,123,-1,-1,125,127,-1,-1,129,-1,131,133,135,137,-1,-1,139,-1,141,143,145,147,-1,-1,-1,149,-1,151,153,155,-1,157,159,161,163,165,167,169,171,-1,173,175,177,179,181,-1,-1,-1,-1,183,185,-1,-1,-1,187,189,191,-1,-1,-1,193,-1,195,197,199,201,203,205,207,-1,-1,-1,209,-1,211,-1,-1,213,215,217,-1,-1,-1,219,221,223,225,-1,227,-1,229,231,233,235,-1,-1,-1,-1,-1,-1,-1,-1,-1,-1,237,239,-1,241,-1,243,-1,-1,245,-1,-1,-1,-1,-1,-1,-1,-1,-1,-1,-1,247,-1,249,-1,-1,-1,251,253,-1,255,257,-1,-1,-1,259,-1,261,263,265,-1,267,269,-1,271,-1,-1,273,275,277,279,-1,281,-1,-1,-1,-1,-1,-1,283,285,-1,-1,-1,-1,-1,287,-1,-1,289,291,-1,-1,-1,293,-1,-1,-1,-1,295,-1,-1,-1,297,-1,-1,-1,-1,-1,299,301,-1,-1,303,-1,-1,305,-1,307,-1,-1,-1,-1,-1,-1,-1,-1,-1,-1,-1,-1,-1,-1,-1,-1,-1,-1,-1,-1,-1,-1,-1,-1,-1,-1,-1,-1,-1,-1,-1,-1,-1,-1,-1,-1],"loss_changes":[1.9903611E4,1.4667034E5,2.1749219E2,3.008061E3,4.503472E4,4.1678974E1,4.288086E1,2.3391699E2,4.1190143E2,1.6105078E4,7.9209033E2,2.0308878E1,7.7745285E0,1.35529785E1,0E0,1.9188477E1,4.732794E1,9.598152E1,1.9993616E2,1.4736516E4,7.0159453E3,3.2867358E2,2.3651569E2,1.7770065E1,6.307289E0,4.7578773E0,5.047989E-1,2.3127197E1,0E0,0E0,1.0265991E1,2.507074E1,8.037594E0,3.4790207E1,3.378231E1,9.33313E0,2.131981E0,1.5163828E3,4.3309375E3,7.132129E1,5.8368438E3,2.4266174E2,5.338794E1,1.5283209E2,1.8805643E1,8.759332E-2,4.156246E0,0E0,3.4125247E0,5.286817E0,5.2025795E-1,0E0,0E0,2.975769E-1,0E0,5.682373E-1,0E0,9.348999E0,2.421692E0,7.7829537E0,7.1060658E0,2.5930467E0,2.0788483E1,7.4188256E0,2.531784E0,0E0,3.5321045E0,1.0433252E1,2.6914902E0,0E0,1.3935527E3,0E0,3.0474375E3,0E0,0E0,1.0522734E4,6.9058984E2,0E0,0E0,6.494885E1,0E0,7.2020264E0,5.4864044E0,1.5962177E1,4.264993E0,0E0,0E0,3.9837914E0,0E0,2.7044654E-2,3.2363114E0,8.426698E0,7.175389E0,0E0,0E0,0E0,5.8175964E0,0E0,1.498291E0,2.7566223E0,1.9252808E1,0E0,7.2162285E0,8.6225414E-1,2.2407465E0,9.448406E0,4.6868286E0,6.645791E-3,1.0327063E0,1.2278564E1,0E0,4.3291664E-1,3.0098944E0,1.7630268E1,7.661831E0,9.492981E0,0E0,0E0,0E0,0E0,6.276376E0,2.515793E3,0E0,0E0,0E0,1.3068066E3,1.609375E0,8.3796875E1,0E0,0E0,0E0,2.4739746E1,0E0,1.0179352E1,3.0171242E0,2.145853E0,4.344105E0,2.60067E-1,2.9285622E-1,1.0753377E1,0E0,0E0,0E0,6.5705824E-1,0E0,6.9584465E-1,0E0,0E0,3.2220974E0,3.4458466E0,2.0753021E0,0E0,0E0,0E0,3.59851E0,1.601767E1,8.265228E0,5.87039E-2,0E0,3.8473853E-1,0E0,1.7106223E0,3.47462E-2,8.76564E0,2.0057926E0,0E0,0E0,0E0,0E0,0E0,0E0,0E0,0E0,0E0,0E0,2.2944694E0,8.189373E0,0E0,5.069216E0,0E0,1.5417662E0,0E0,0E0,1.0784382E-1,0E0,0E0,0E0,0E0,0E0,0E0,0E0,0E0,0E0,0E0,0E0,5.697774E0,0E0,3.8849993E0,0E0,0E0,0E0,2.050583E0,1.5618586E1,0E0,2.8457544E0,1.3439325E0,0E0,0E0,0E0,2.1938922E0,0E0,9.7037476E-1,6.763263E-1,1.3883824E0,0E0,4.51651E0,5.741864E0,0E0,2.6469618E1,0E0,0E0,3.6474876E0,2.2682693E0,1.1971283E0,6.43631E0,0E0,2.1595356E0,0E0,0E0,0E0,0E0,0E0,0E0,1.6578522E0,5.702119E0,0E0,0E0,0E0,0E0,0E0,3.993475E0,0E0,0E0,2.6743143E0,5.515299E-1,0E0,0E0,0E0,4.223442E0,0E0,0E0,0E0,0E0,1.1138395E0,0E0,0E0,0E0,6.0990024E-1,0E0,0E0,0E0,0E0,0E0,1.2284851E-1,2.1885565E-1,0E0,0E0,1.01088295E1,0E0,0E0,1.3051915E-1,0E0,5.5016556E0,0E0,0E0,0E0,0E0,0E0,0E0,0E0,0E0,0E0,0E0,0E0,0E0,0E0,0E0,0E0,0E0,0E0,0E0,0E0,0E0,0E0,0E0,0E0,0E0,0E0,0E0,0E0,0E0,0E0,0E0,0E0,0E0,0E0,0E0,0E0,0E0],"parents":[2147483647,0,0,1,1,2,2,3,3,4,4,5,5,6,6,7,7,8,8,9,9,10,10,11,11,12,12,13,13,15,15,16,16,17,17,18,18,19,19,20,20,21,21,22,22,23,23,24,24,25,25,26,26,27,27,30,30,31,31,32,32,33,33,34,34,35,35,36,36,37,37,38,38,39,39,40,40,41,41,42,42,43,43,44,44,45,45,46,46,48,48,49,49,50,50,53,53,55,55,57,57,58,58,59,59,60,60,61,61,62,62,63,63,64,64,66,66,67,67,68,68,70,70,72,72,75,75,76,76,79,79,81,81,82,82,83,83,84,84,87,87,89,89,90,90,91,91,92,92,96,96,98,98,99,99,100,100,102,102,103,103,104,104,105,105,106,106,107,107,108,108,109,109,111,111,112,112,113,113,114,114,115,115,120,120,121,121,125,125,126,126,127,127,131,131,133,133,134,134,135,135,136,136,137,137,138,138,139,139,143,143,145,145,148,148,149,149,150,150,154,154,155,155,156,156,157,157,159,159,161,161,162,162,163,163,164,164,175,175,176,176,178,178,180,180,183,183,195,195,197,197,201,201,202,202,204,204,205,205,209,209,211,211,212,212,213,213,215,215,216,216,218,218,221,221,222,222,223,223,224,224,226,226,233,233,234,234,240,240,243,243,244,244,248,248,253,253,257,257,263,263,264,264,267,267,270,270,272,272],"right_children":[2,4,6,8,10,12,14,16,18,20,22,24,26,28,-1,30,32,34,36,38,40,42,44,46,48,50,52,54,-1,-1,56,58,60,62,64,66,68,70,72,74,76,78,80,82,84,86,88,-1,90,92,94,-1,-1,96,-1,98,-1,100,102,104,106,108,110,112,114,-1,116,118,120,-1,122,-1,124,-1,-1,126,128,-1,-1,130,-1,132,134,136,138,-1,-1,140,-1,142,144,146,148,-1,-1,-1,150,-1,152,154,156,-1,158,160,162,164,166,168,170,172,-1,174,176,178,180,182,-1,-1,-1,-1,184,186,-1,-1,-1,188,190,192,-1,-1,-1,194,-1,196,198,200,202,204,206,208,-1,-1,-1,210,-1,212,-1,-1,214,216,218,-1,-1,-1,220,222,224,226,-1,228,-1,230,232,234,236,-1,-1,-1,-1,-1,-1,-1,-1,-1,-1,238,240,-1,242,-1,244,-1,-1,246,-1,-1,-1,-1,-1,-1,-1,-1,-1,-1,-1,248,-1,250,-1,-1,-1,252,254,-1,256,258,-1,-1,-1,260,-1,262,264,266,-1,268,270,-1,272,-1,-1,274,276,278,280,-1,282,-1,-1,-1,-1,-1,-1,284,286,-1,-1,-1,-1,-1,288,-1,-1,290,292,-1,-1,-1,294,-1,-1,-1,-1,296,-1,-1,-1,298,-1,-1,-1,-1,-1,300,302,-1,-1,304,-1,-1,306,-1,308,-1,-1,-1,-1,-1,-1,-1,-1,-1,-1,-1,-1,-1,-1,-1,-1,-1,-1,-1,-1,-1,-1,-1,-1,-1,-1,-1,-1,-1,-1,-1,-1,-1,-1,-1,-1],"split_conditions":[5.397071E0,5.351501E0,5.4071975E0,5.3363113E0,5.3818808E0,4.090909E-1,5.4831467E0,5.295805E0,5.346438E0,3.5454544E-1,5.3869443E0,5.402134E0,5.402134E0,1.1181818E0,-1.1109403E0,5.250235E0,5.331248E0,4.090909E-1,7.3636365E-1,1.9090909E-1,5.3565645E0,3E-1,6.818182E-1,1.3636364E-1,8.181818E-2,1.0636364E0,4.6363637E-1,5.422387E0,-1.1889563E0,-1.0980821E0,7.909091E-1,1.0636364E0,4.6363637E-1,1.3636364E-1,5.3413744E0,8.181818E-2,8.454546E-1,5.3565645E0,5.3616276E0,1.0090909E0,5.371754E0,1.3636364E-1,1.0090909E0,5.3920074E0,5.3920074E0,8.181818E-2,3.5454544E-1,-7.2196174E-1,1.9090909E-1,8.454546E-1,1.1727272E0,-1.8238536E-1,-7.1034974E-1,8.181818E-2,-9.61537E-1,1.3636364E-1,-1.0703223E0,1.3636364E-1,5.316058E0,2.4545455E-1,1.1181818E0,8.181818E-2,3E-1,6.272727E-1,7.909091E-1,7.7160245E-1,4.090909E-1,7.909091E-1,1.0636364E0,2.724297E0,5.371754E0,1.2783776E1,5.371754E0,3.7245867E0,1.5698525E0,5.366691E0,9.5454544E-1,1.6656929E0,6.9145355E0,3.5454544E-1,1.0785792E0,4.090909E-1,3.5454544E-1,7.909091E-1,9E-1,-7.088871E-2,-3.0579185E-1,2.4545455E-1,6.1066248E-2,1.3636364E-1,3.5454544E-1,7.909091E-1,9E-1,-7.359532E-1,-1.7696486E-1,-1.0580399E0,4.6363637E-1,-1.0553812E0,3E-1,5.3261847E0,3.5454544E-1,-1.1805489E0,5.321121E0,1.3636364E-1,3.5454544E-1,1.0090909E0,1.1727272E0,5.3413744E0,5.3413744E0,1.9090909E-1,7.007481E-1,5.7272726E-1,7.3636365E-1,6.272727E-1,9E-1,1.9090909E-1,2.0134254E0,7.8578115E-1,-2.3421879E-1,1.2609292E0,1.1727272E0,5.366691E0,6.0507097E0,3.3091E1,1.669008E1,9.5454544E-1,1.0636364E0,5.3768177E0,4.148533E0,2.0969011E-1,2.9471762E0,1.3636364E-1,1.5189991E0,1.9090909E-1,5.181818E-1,7.3636365E-1,1.0090909E0,7.909091E-1,1.1727272E0,1.9090909E-1,1.0508218E0,5.2979853E-2,2.1583071E-1,3E-1,1.4273988E-1,5.181818E-1,-9.0385383E-1,5.092115E-1,1.0090909E0,4.090909E-1,1.0090909E0,-6.7678857E-1,-8.751302E-1,-9.742088E-1,8.181818E-2,5.321121E0,4.090909E-1,1.1181818E0,-8.917528E-1,8.181818E-2,-3.4935534E-1,3E-1,4.090909E-1,6.818182E-1,1.0636364E0,4.2384997E-1,-2.3473635E-1,7.289658E-2,1.602831E-2,1.2388745E-1,6.7842525E-1,7.0167357E-1,2.188517E0,3.1435764E-1,4.195719E-2,6.818182E-1,7.909091E-1,7.069826E-1,6.818182E-1,1.1642998E0,1.1181818E0,1.5556046E0,4.1051188E0,1.1181818E0,9.004292E-1,7.95519E0,2.0466125E1,1.0380648E1,5.2489004E0,2.0163286E1,9.748325E0,9.331158E0,5.952783E0,1.0977634E0,3.2866056E0,8.181818E-2,1.4601185E0,4.6363637E-1,7.0241493E-1,1.4115544E-1,-3.0884457E-1,8.454546E-1,1.1727272E0,3.105568E-1,8.454546E-1,1.1181818E0,-2.281932E-1,7.1698666E-1,-2.9632017E-1,2.4545455E-1,-5.075103E-1,4.6363637E-1,6.272727E-1,9.5454544E-1,1.585928E-1,5.4122605E0,5.4122605E0,-8.157602E-1,5.4122605E0,-5.622889E-1,7.304707E-2,2.4545455E-1,2.4545455E-1,5.3109946E0,5.7272726E-1,-3.0314314E-1,1.1727272E0,-1.398305E-1,5.2900888E-2,6.076584E-2,6.134783E-1,4.9365237E-2,-1.0820962E-2,5.7272726E-1,7.909091E-1,-1.1371019E0,-2.3710185E-1,-2.882023E-2,-6.1642945E-1,4.857482E-1,8.454546E-1,-5.132384E-1,1.1839982E-1,1.0636364E0,1.1727272E0,1.3384151E-1,6.3411715E-3,8.267121E-1,1.3636364E-1,3.8580325E-1,-1.782074E-1,2.5196058E-1,1.1279409E0,1.0636364E0,1.0422146E0,-1.8743935E-1,3.248194E-1,1.0636364E0,1.5430671E-1,-3.3528388E-1,1.2530994E-1,-1.5470181E-1,1.4092799E-1,5.7272726E-1,7.3636365E-1,-3.266373E-2,-5.0194216E-1,3E-1,-6.6072893E-1,-5.1429063E-1,5.417324E0,3.3613244E-1,5.417324E0,-6.395636E-1,-3.1807315E-1,1.4066231E-1,-1.4509964E-1,-1.3021809E0,-6.122859E-1,-4.4157258E-1,-6.852076E-1,1.4685689E-1,-3.0314314E-1,-2.0034638E-1,-7.1826637E-1,3.1705326E-1,-2.0616966E-1,-5.6425184E-1,-6.987498E-2,3.3783132E-1,-1.2173367E-1,7.540953E-1,1.7386094E-1,-2.5703776E-1,3.624916E-1,1.4971505E-1,-1.403801E-1,-4.0440418E-2,-2.7200234E-1,-9.39746E-2,-3.9550212E-1,-8.247948E-3,-1.5308104E-1,-5.062694E-1,2.1427919E-1,2.8843977E-2,1.9951887E-1,-1.1163521E0,-2.7080938E-1],"split_indices":[1,1,1,1,1,0,1,1,1,0,1,1,1,0,0,1,1,0,0,0,1,0,0,0,0,0,0,1,0,0,0,0,0,0,1,0,0,1,1,0,1,0,0,1,1,0,0,0,0,0,0,0,0,0,0,0,0,0,1,0,0,0,0,0,0,0,0,0,0,0,1,0,1,0,0,1,0,0,0,0,0,0,0,0,0,0,0,0,0,0,0,0,0,0,0,0,0,0,0,1,0,0,1,0,0,0,0,1,1,0,0,0,0,0,0,0,0,0,0,0,0,1,0,0,0,0,0,1,0,0,0,0,0,0,0,0,0,0,0,0,0,0,0,0,0,0,0,0,0,0,0,0,0,0,0,1,0,0,0,0,0,0,0,0,0,0,0,0,0,0,0,0,0,0,0,0,0,0,0,0,0,0,0,0,0,0,0,0,0,0,0,0,0,0,0,0,0,0,0,0,0,0,0,0,0,0,0,0,0,0,0,0,0,0,0,1,1,0,1,0,0,0,0,1,0,0,0,0,0,0,0,0,0,0,0,0,0,0,0,0,0,0,0,0,0,0,0,0,0,0,0,0,0,0,0,0,0,0,0,0,0,0,0,0,0,0,0,0,0,0,1,0,1,0,0,0,0,0,0,0,0,0,0,0,0,0,0,0,0,0,0,0,0,0,0,0,0,0,0,0,0,0,0,0,0,0,0,0,0],"split_type":[0,0,0,0,0,0,0,0,0,0,0,0,0,0,0,0,0,0,0,0,0,0,0,0,0,0,0,0,0,0,0,0,0,0,0,0,0,0,0,0,0,0,0,0,0,0,0,0,0,0,0,0,0,0,0,0,0,0,0,0,0,0,0,0,0,0,0,0,0,0,0,0,0,0,0,0,0,0,0,0,0,0,0,0,0,0,0,0,0,0,0,0,0,0,0,0,0,0,0,0,0,0,0,0,0,0,0,0,0,0,0,0,0,0,0,0,0,0,0,0,0,0,0,0,0,0,0,0,0,0,0,0,0,0,0,0,0,0,0,0,0,0,0,0,0,0,0,0,0,0,0,0,0,0,0,0,0,0,0,0,0,0,0,0,0,0,0,0,0,0,0,0,0,0,0,0,0,0,0,0,0,0,0,0,0,0,0,0,0,0,0,0,0,0,0,0,0,0,0,0,0,0,0,0,0,0,0,0,0,0,0,0,0,0,0,0,0,0,0,0,0,0,0,0,0,0,0,0,0,0,0,0,0,0,0,0,0,0,0,0,0,0,0,0,0,0,0,0,0,0,0,0,0,0,0,0,0,0,0,0,0,0,0,0,0,0,0,0,0,0,0,0,0,0,0,0,0,0,0,0,0,0,0,0,0,0,0,0,0,0,0,0,0,0,0,0,0,0,0,0,0,0,0,0,0,0,0,0,0],"sum_hessian":[1.738E3,9.9E2,7.48E2,7.92E2,1.98E2,4.4E1,7.04E2,7.26E2,6.6E1,1.32E2,6.6E1,1.4E1,3E1,3.3E2,3.74E2,5.5E2,1.76E2,4.4E1,2.2E1,3.6E1,9.6E1,2.2E1,4.4E1,7E0,7E0,1.5E1,1.5E1,3E2,3E1,3.52E2,1.98E2,1.54E2,2.2E1,1.4E1,3E1,1.3E1,9E0,1.8E1,1.8E1,1.6E1,8E1,5E0,1.7E1,2.4E1,2E1,2E0,5E0,1E0,6E0,1.2E1,3E0,1E0,1.4E1,6E1,2.4E2,1.26E2,7.2E1,1.33E2,2.1E1,8E0,1.4E1,4E0,1E1,1.5E1,1.5E1,1E0,1.2E1,2E0,7E0,3E0,1.5E1,6E0,1.2E1,1.2E1,4E0,4.8E1,3.2E1,2E0,3E0,1.3E1,4E0,1.2E1,1.2E1,1E1,1E1,1E0,1E0,4E0,1E0,2E0,4E0,8E0,4E0,2E0,1E0,3E0,5.7E1,1.8E1,1.08E2,1.4E1,1.19E2,1.2E1,9E0,4E0,4E0,1.2E1,2E0,2E0,2E0,6E0,4E0,4E0,1.1E1,7E0,8E0,6E0,6E0,1E0,1E0,4E0,3E0,9E0,6E0,6E0,6E0,3.2E1,1.6E1,2.2E1,1E1,1E0,1.2E1,7E0,5E0,6E0,6E0,2E0,8E0,4E0,6E0,2E0,2E0,1E0,1E0,3E0,1E0,7E0,1E0,1E0,3E0,2.1E1,3.6E1,2.7E1,8.1E1,1.2E1,2E0,2.8E1,9.1E1,3E0,6E0,2E0,2E0,2E0,2E0,1E1,2E0,1E0,1E0,1E0,1E0,1E0,1E0,2E0,4E0,3E0,1E0,2E0,9E0,4E0,3E0,2E0,6E0,2E0,4E0,2E0,1E0,6E0,3E0,2.2E1,1E1,1.3E1,3E0,1.1E1,1.1E1,2E0,5E0,3E0,3E0,3E0,3E0,1E0,1E0,4E0,4E0,2E0,2E0,5E0,1E0,1E0,1E0,2E0,1E0,2E0,5E0,2E0,1E0,1.8E1,3E0,3E1,6E0,1E0,1E0,2E1,8E0,7E0,8.4E1,1E0,2E0,1E0,1E0,1E0,1E0,1E0,1E0,4E0,6E0,1E0,1E0,1E0,1E0,1E0,8E0,1E0,2E0,4E0,2E0,1E0,1E0,1E0,2E0,2E0,1E0,1E0,3E0,3E0,1E0,1E0,1E0,4E0,1E0,1E0,1E0,1E0,1E0,2E0,3E0,1E0,1E0,6E0,1.2E1,1E0,2E0,2E0,4E0,1E1,1E1,4E0,4E0,3E0,4E0,2.1E1,6.3E1,1E0,1E0,2E0,2E0,2E0,4E0,1E0,7E0,3E0,1E0,1E0,1E0,1E0,1E0,1E0,2E0,3E0,1E0,1E0,1E0,2E0,1E0,4E0,2E0,1E0,1E0,2E0,2E0],"tree_param":{"num_deleted":"0","num_feature":"2","num_nodes":"309","size_leaf_vector":"1"}},{"base_weights":[5.132352E-1,2.6631813E0,-2.3320382E0,-1.7986114E0,2.0429707E1,-8.5492545E-1,-2.4230142E0,-2.1556625E0,4.184275E0,3.032198E1,7.862603E0,2.1180852E-1,-1.3435088E0,-2.250593E0,-7.9100925E-1,-2.3769262E0,-8.6248153E-1,6.9354033E0,2.7181075E0,2.0924622E1,4.3639782E1,1.646002E1,4.793899E0,-1.1850841E0,8.275044E-1,-1.0809389E0,-7.4780524E-1,-2.0866184E0,-7.2097754E-1,-2.490725E0,-1.9252497E0,-1.1886692E0,4.3722218E-1,3.5818639E0,2.6319335E0,1.5229927E0,3.7433403E0,1.0636008E1,2.5718254E1,6.0623264E1,2.4758915E1,6.7327952E0,1.0131639E1,8.346559E0,2.871564E0,-1.4976063E0,-4.7753397E-1,1.8560652E0,-3.3897367E-1,-1.2767146E0,3.5816766E-2,-1.757727E0,-6.994577E-1,-7.695907E-1,-2.3048124E0,-1.6443542E0,-7.8288525E-1,-7.479881E-1,-1.4738868E0,1.390348E0,-4.029013E-1,1.4877472E0,1.2365884E0,8.742454E-1,1.9304357E0,4.7267814E0,1.8036613E0,1.4535704E1,7.5871234E0,3.1712187E1,1.735794E1,7.991704E1,1.0883266E1,2.9251284E1,1.4520641E1,3.5159843E0,1.5739069E0,1.4129289E1,5.955284E0,5.6944947E0,1.6724832E0,-6.0255434E-2,-6.136674E-1,-2.599231E-1,4.5032788E-2,2.1580696E0,5.1906396E-2,1.8345624E-1,-6.513767E-1,-7.9758084E-1,-1.9334137E0,2.631301E-1,-2.4522172E-1,-2.5197644E0,-1.4375937E0,-2.0553703E0,-2.5709784E0,-1.7928442E0,5.2092415E-1,-1.6907736E0,-2.2782013E-1,-2.617074E0,-1.0754644E0,1.11511044E-1,1.575413E0,-9.458999E-2,-3.2188627E-1,1.3624192E-2,6.558621E-1,5.37307E-1,-4.9028826E-1,1.07358E0,1.2770901E0,2.9587338E0,5.9030824E0,-8.635586E-1,3.063781E0,1.4504639E0,4.9850016E0,8.538369E0,3.9769578E0,5.9095683E0,3.4469196E1,1.0558014E0,1.8629408E1,6.0821643E0,2.504882E1,3.4683962E0,9.325046E0,4.699496E0,8.048836E-1,1.332554E0,5.3587646E0,6.680938E0,8.197193E-1,7.6654663E0,2.910024E0,2.645415E0,6.011698E-1,1.0217657E0,1.0054928E0,-1.0164356E0,1.2132884E-1,-1.2402948E0,-1.144371E-1,-9.7840494E-1,-1.0880964E0,-1.614318E0,-8.162193E-1,-8.098978E-1,-1.7852719E0,-5.47424E-1,-2.5358772E0,-6.526282E-1,-2.8073468E0,-1.6917094E0,-8.294371E-1,-4.0102273E-1,5.651583E-1,-2.2430027E0,-8.970054E-1,6.6825783E-1,-5.459636E-1,-1.0843697E0,-1.245715E0,-5.1232857E-1,-1.5873876E0,2.439906E0,9.79857E-1,-6.439187E-1,5.8352244E-1,-4.362525E-1,9.47197E-2,8.2638425E-1,1.7528051E0,1.3113273E0,-6.1545753E-1,2.5720425E0,3.0921154E0,1.2485887E0,1.4742002E0,5.373052E0,3.3786423E0,3.3529016E-1,1.3237141E0,1.6039417E1,7.751823E0,6.888928E0,3.3788245E0,1.7823716E-1,2.1310358E0,8.782105E-1,2.6925697E0,1.3205681E0,1.1315922E0,1.1660529E0,1.6149234E0,1.3132578E0,-1.7771488E-1,6.0943854E-1,8.046468E-3,-3.9661726E-1,-4.3138364E-1,-6.850973E-1,-6.3669723E-1,3.0428544E-1,-2.322487E-1,-3.5975456E-2,-5.6045794E-1,-8.438195E-1,-5.724064E-1,3.7811184E-1,-9.89086E-1,-1.0271249E0,-1.8620389E0,-8.264477E-1,-1.1091182E0,-9.7019696E-1,-6.7410624E-1,-1.752505E0,-7.6391476E-1,3.751226E-1,-1.1264827E0,-5.1881856E-1,-2.8289127E0,-1.3262259E0,-4.6007195E-1,-6.5410614E-1,1.3280246E0,4.288725E-1,-1.4662033E0,1.2462374E0,-7.4752307E-1,-8.157918E-1,-1.706738E-2,-8.791544E-1,-1.7537632E0,1.9392414E-1,9.040335E-1,3.4792075E-1,3.4891424E-1,-1.3321686E-1,-4.7961417E-1,5.615902E-1,-2.0658064E-1,4.060404E-1,-1.5185547E-1,6.409807E-1,1.4778157E-1,1.0418396E0,1.3864415E0,2.6478958E-1,7.653649E-1,1.8873612E0,6.15535E-1,7.02705E-1,1.9919078E-1,-3.1674576E-1,2.0793772E0,5.1914597E-1,1.6237894E0,2.1468115E-1,-4.096931E-1,-2.5187188E-1,2.554928E-1,-2.8499138E-1,1.065136E-1,-1.3874729E0,7.1389455E-1,-9.3370445E-2,8.183772E-1,4.328299E-1,-1.0098114E0,-1.1893584E0,2.3534775E-1,-9.482231E-1,6.5356755E-1,-6.7084575E-1,-1.4621508E0,-7.6275307E-1,4.007291E-1,-1.3962821E0,-2.0949621E0,2.2720432E-2,-5.772796E-1,-5.546799E-1,-3.518212E-1,1.4100885E-1,-4.0544954E-1,-1.0505219E-1,-5.183114E-1,4.192546E-1,-6.5272295E-1,-1.0556456E0,-3.588108E-1,-4.7794563E-1,-1.1885605E-1,7.137051E-2,-3.014065E-1,-2.5800934E-1,-3.6338426E-2,1.8513952E-1,6.257395E-1,3.7089814E-2,2.5674722E-1,-5.3910273E-1,-1.5622273E-1,4.5601475E-1,1.04792126E-1,-7.165464E-2,-5.073393E-1,-1.0312868E-1,2.2527295E-1,-9.50362E-1,6.364924E-2,-2.0789666E-1,-5.835752E-1,1.5403348E-1,2.530861E-3,-2.563993E-1,4.1288596E-1,-2.463459E-1,2.4557048E-1,3.5138514E-2,-1.0347348E-1,6.6791385E-1,-1.9908601E-1,1.1376515E-1,5.3901672E-3,-2.1848203E-1,3.0811787E-1,1.1998215E-1,-2.6251775E-1,7.849899E-1,3.3787376E-1,3.086426E-1,-1.514763E-1,5.314396E-1,1.3281155E-1,-1.5932351E-1,1.9208814E-1,-6.9903836E-2,-1.939642E-1,-7.8052524E-3,-6.859312E-1,-7.987833E-2,4.0113088E-1,4.0680885E-2,3.2758886E-1,-2.7764225E-2,-4.266509E-1,5.3138927E-2,-5.8835024E-1,-2.2046758E-2,1.2795325E-1,1.16497995E-2,-4.3835023E-1,-4.324254E-1,5.507464E-2,-1.9397546E-1,-5.46652E-1,-1.5953568E-1,-5.740578E-1,-8.486863E-1,-4.1076058E-1],"categories":[],"categories_nodes":[],"categories_segments":[],"categories_sizes":[],"default_left":[0,0,0,0,0,0,0,0,0,0,0,0,0,0,0,0,0,0,0,0,0,0,0,0,0,0,0,0,0,0,0,0,0,0,0,0,0,0,0,0,0,0,0,0,0,0,0,0,0,0,0,0,0,0,0,0,0,0,0,0,0,0,0,0,0,0,0,0,0,0,0,0,0,0,0,0,0,0,0,0,0,0,0,0,0,0,0,0,0,0,0,0,0,0,0,0,0,0,0,0,0,0,0,0,0,0,0,0,0,0,0,0,0,0,0,0,0,0,0,0,0,0,0,0,0,0,0,0,0,0,0,0,0,0,0,0,0,0,0,0,0,0,0,0,0,0,0,0,0,0,0,0,0,0,0,0,0,0,0,0,0,0,0,0,0,0,0,0,0,0,0,0,0,0,0,0,0,0,0,0,0,0,0,0,0,0,0,0,0,0,0,0,0,0,0,0,0,0,0,0,0,0,0,0,0,0,0,0,0,0,0,0,0,0,0,0,0,0,0,0,0,0,0,0,0,0,0,0,0,0,0,0,0,0,0,0,0,0,0,0,0,0,0,0,0,0,0,0,0,0,0,0,0,0,0,0,0,0,0,0,0,0,0,0,0,0,0,0,0,0,0,0,0,0,0,0,0,0,0,0,0,0,0,0,0,0,0,0,0,0,0,0,0,0,0,0,0,0,0,0,0,0,0,0,0,0,0,0,0,0,0,0,0,0,0,0,0,0,0,0,0,0,0,0,0,0,0,0,0,0,0,0,0,0,0,0,0,0,0,0,0,0,0,0,0,0,0,0,0,0,0,0,0,0,0,0,0,0,0,0,0,0,0,0,0],"id":7,"left_children":[1,3,5,7,9,11,13,15,17,19,21,23,25,27,-1,29,31,33,35,37,39,41,43,45,47,49,-1,51,-1,53,55,57,59,61,-1,63,65,67,69,71,73,-1,75,77,79,81,83,85,87,89,91,93,-1,-1,95,97,-1,99,101,103,105,107,-1,109,111,113,115,117,119,121,123,125,-1,127,129,-1,-1,131,133,135,137,-1,-1,-1,-1,139,-1,-1,141,143,145,-1,-1,147,149,151,153,155,157,159,161,163,165,-1,167,169,-1,-1,-1,-1,171,-1,173,175,177,-1,179,-1,-1,181,183,-1,185,-1,187,-1,-1,-1,-1,-1,-1,-1,-1,189,-1,191,193,195,197,199,-1,201,-1,203,205,-1,207,209,-1,211,213,-1,215,-1,217,219,-1,221,-1,223,225,227,229,-1,231,233,235,237,239,241,243,-1,-1,245,247,-1,-1,-1,249,-1,251,253,-1,-1,-1,-1,-1,-1,-1,-1,-1,-1,-1,255,-1,-1,257,259,261,-1,263,265,-1,267,-1,269,-1,271,-1,-1,273,275,277,279,281,-1,283,-1,-1,285,287,-1,289,291,293,295,297,299,301,303,305,307,-1,309,311,313,315,-1,-1,317,-1,319,-1,-1,321,-1,323,-1,-1,325,-1,327,-1,-1,-1,-1,329,331,333,335,337,339,341,-1,-1,-1,-1,343,345,-1,347,-1,349,351,353,355,-1,357,359,-1,-1,361,363,-1,-1,-1,-1,-1,-1,-1,-1,-1,-1,-1,-1,-1,-1,-1,-1,-1,-1,-1,-1,-1,-1,-1,-1,-1,-1,-1,-1,-1,-1,-1,-1,-1,-1,-1,-1,-1,-1,-1,-1,-1,-1,-1,-1,-1,-1,-1,-1,-1,-1,-1,-1,-1,-1,-1,-1,-1,-1,-1,-1,-1,-1,-1,-1,-1,-1,-1,-1,-1,-1,-1,-1,-1,-1,-1,-1,-1,-1,-1,-1,-1,-1],"loss_changes":[1.0643994E4,7.859386E4,9.858081E1,1.7030234E3,2.450071E4,2.3738049E1,2.0040527E1,2.1226465E2,1.6266144E2,1.297875E4,2.2691738E3,1.3881578E1,6.659462E0,4.92334E0,0E0,2.8049316E1,4.7577873E1,6.101825E1,3.2282333E1,3.0308867E3,1.2928859E4,6.4340674E2,4.3360217E2,3.9046764E-1,1.3826886E1,5.9488297E0,0E0,1.1930969E1,0E0,1.1169434E0,2.1276215E1,1.0083954E1,1.8977268E1,1.7847519E0,0E0,2.541565E0,2.1995453E1,1.6317944E2,1.7045449E3,7.904383E3,6.331172E2,0E0,3.9384277E1,2.3390234E2,1.4279755E2,1.7208242E0,8.62283E-1,2.6763287E0,2.1799545E0,5.694824E0,4.305957E0,1.8089447E1,0E0,0E0,5.006592E0,3.2121582E1,0E0,1.775986E1,2.1325424E1,1.4880829E0,2.584113E0,2.9229507E0,0E0,1.0885912E1,5.121193E0,3.3319092E0,5.0120018E1,1.0134436E2,1.7555664E1,1.4904688E2,3.0393896E2,8.6878125E2,0E0,1.2680762E2,7.988928E1,0E0,0E0,1.3765161E2,2.3841614E1,4.9038788E1,3.280606E1,0E0,0E0,0E0,0E0,3.3567142E0,0E0,0E0,2.3382337E0,4.3946238E0,6.554081E0,0E0,0E0,1.5698242E-1,1.2739471E1,4.7920227E0,5.3100586E-1,4.267853E0,9.551358E0,3.6864624E0,7.4918785E0,1.328022E1,1.10063095E1,0E0,2.2429256E0,4.1008067E0,0E0,0E0,0E0,0E0,3.5667806E0,0E0,2.667694E-1,5.1425045E1,1.1021744E1,0E0,4.338318E0,0E0,0E0,3.432544E1,1.2936401E0,0E0,1.733123E3,0E0,3.4794385E2,0E0,0E0,0E0,0E0,0E0,0E0,0E0,0E0,3.1784424E1,0E0,1.716681E1,4.60907E0,1.5470833E1,9.662172E0,4.0778475E0,0E0,4.7472382E-1,0E0,2.9533062E0,2.1692588E0,0E0,5.6780834E0,7.1304607E0,0E0,5.695917E0,4.736786E-1,0E0,4.7542267E0,0E0,2.5345764E0,3.4557343E0,0E0,7.398801E0,0E0,5.6038246E0,7.026262E-1,6.9758325E0,1.767339E1,0E0,2.484061E1,3.1422415E0,9.3265915E-1,1.1379814E0,4.0570354E-1,2.7127182E0,5.476734E0,0E0,0E0,3.2992167E0,3.9848232E-1,0E0,0E0,0E0,7.727577E0,0E0,4.5346823E0,8.43779E0,0E0,0E0,0E0,0E0,0E0,0E0,0E0,0E0,0E0,0E0,0E0,4.116638E0,0E0,0E0,1.05275135E1,1.3763876E0,9.0719926E-1,0E0,2.8601613E0,1.5850892E0,0E0,7.8688335E0,0E0,1.8368769E0,0E0,7.2171283E0,0E0,0E0,2.7716405E0,1.161774E1,2.3311844E0,2.488031E1,9.8031616E-1,0E0,4.97488E0,0E0,0E0,2.2482452E0,5.710563E0,0E0,1.2619381E0,1.2566297E1,1.4240227E0,1.1356926E-1,2.139656E0,2.2508669E-1,1.4062672E0,1.197418E0,2.1918583E0,2.0580626E-1,0E0,6.1613436E0,2.5161824E0,1.5658436E1,1.9019585E0,0E0,0E0,1.6424713E-1,0E0,6.6214E0,0E0,0E0,3.1922824E0,0E0,1.9618586E-1,0E0,0E0,7.538024E0,0E0,7.7916354E-2,0E0,0E0,0E0,0E0,3.051436E0,1.5503781E0,1.661705E0,2.6071815E0,2.6226902E-1,1.6096647E0,1.00431085E-1,0E0,0E0,0E0,0E0,6.060013E0,2.188542E0,0E0,4.1231823E-1,0E0,1.0031059E0,3.5113845E0,2.0845856E-1,1.5756547E0,0E0,1.0140594E1,1.1707859E0,0E0,0E0,5.6897507E0,7.846039E0,0E0,0E0,0E0,0E0,0E0,0E0,0E0,0E0,0E0,0E0,0E0,0E0,0E0,0E0,0E0,0E0,0E0,0E0,0E0,0E0,0E0,0E0,0E0,0E0,0E0,0E0,0E0,0E0,0E0,0E0,0E0,0E0,0E0,0E0,0E0,0E0,0E0,0E0,0E0,0E0,0E0,0E0,0E0,0E0,0E0,0E0,0E0,0E0,0E0,0E0,0E0,0E0,0E0,0E0,0E0,0E0,0E0,0E0,0E0,0E0,0E0,0E0,0E0,0E0,0E0,0E0,0E0,0E0,0E0,0E0,0E0,0E0,0E0,0E0,0E0,0E0,0E0,0E0,0E0,0E0,0E0,0E0],"parents":[2147483647,0,0,1,1,2,2,3,3,4,4,5,5,6,6,7,7,8,8,9,9,10,10,11,11,12,12,13,13,15,15,16,16,17,17,18,18,19,19,20,20,21,21,22,22,23,23,24,24,25,25,27,27,29,29,30,30,31,31,32,32,33,33,35,35,36,36,37,37,38,38,39,39,40,40,42,42,43,43,44,44,45,45,46,46,47,47,48,48,49,49,50,50,51,51,54,54,55,55,57,57,58,58,59,59,60,60,61,61,63,63,64,64,65,65,66,66,67,67,68,68,69,69,70,70,71,71,73,73,74,74,77,77,78,78,79,79,80,80,85,85,88,88,89,89,90,90,93,93,94,94,95,95,96,96,97,97,98,98,99,99,100,100,101,101,102,102,104,104,105,105,110,110,112,112,113,113,114,114,116,116,119,119,120,120,122,122,124,124,133,133,135,135,136,136,137,137,138,138,139,139,141,141,143,143,144,144,146,146,147,147,149,149,150,150,152,152,154,154,155,155,157,157,159,159,160,160,161,161,162,162,164,164,165,165,166,166,167,167,168,168,169,169,170,170,173,173,174,174,178,178,180,180,181,181,193,193,196,196,197,197,198,198,200,200,201,201,203,203,205,205,207,207,210,210,211,211,212,212,213,213,214,214,216,216,219,219,220,220,222,222,223,223,224,224,225,225,226,226,227,227,228,228,229,229,230,230,231,231,233,233,234,234,235,235,236,236,239,239,241,241,244,244,246,246,249,249,251,251,256,256,257,257,258,258,259,259,260,260,261,261,262,262,267,267,268,268,270,270,272,272,273,273,274,274,275,275,277,277,278,278,281,281,282,282],"right_children":[2,4,6,8,10,12,14,16,18,20,22,24,26,28,-1,30,32,34,36,38,40,42,44,46,48,50,-1,52,-1,54,56,58,60,62,-1,64,66,68,70,72,74,-1,76,78,80,82,84,86,88,90,92,94,-1,-1,96,98,-1,100,102,104,106,108,-1,110,112,114,116,118,120,122,124,126,-1,128,130,-1,-1,132,134,136,138,-1,-1,-1,-1,140,-1,-1,142,144,146,-1,-1,148,150,152,154,156,158,160,162,164,166,-1,168,170,-1,-1,-1,-1,172,-1,174,176,178,-1,180,-1,-1,182,184,-1,186,-1,188,-1,-1,-1,-1,-1,-1,-1,-1,190,-1,192,194,196,198,200,-1,202,-1,204,206,-1,208,210,-1,212,214,-1,216,-1,218,220,-1,222,-1,224,226,228,230,-1,232,234,236,238,240,242,244,-1,-1,246,248,-1,-1,-1,250,-1,252,254,-1,-1,-1,-1,-1,-1,-1,-1,-1,-1,-1,256,-1,-1,258,260,262,-1,264,266,-1,268,-1,270,-1,272,-1,-1,274,276,278,280,282,-1,284,-1,-1,286,288,-1,290,292,294,296,298,300,302,304,306,308,-1,310,312,314,316,-1,-1,318,-1,320,-1,-1,322,-1,324,-1,-1,326,-1,328,-1,-1,-1,-1,330,332,334,336,338,340,342,-1,-1,-1,-1,344,346,-1,348,-1,350,352,354,356,-1,358,360,-1,-1,362,364,-1,-1,-1,-1,-1,-1,-1,-1,-1,-1,-1,-1,-1,-1,-1,-1,-1,-1,-1,-1,-1,-1,-1,-1,-1,-1,-1,-1,-1,-1,-1,-1,-1,-1,-1,-1,-1,-1,-1,-1,-1,-1,-1,-1,-1,-1,-1,-1,-1,-1,-1,-1,-1,-1,-1,-1,-1,-1,-1,-1,-1,-1,-1,-1,-1,-1,-1,-1,-1,-1,-1,-1,-1,-1,-1,-1,-1,-1,-1,-1,-1,-1],"split_conditions":[5.397071E0,5.351501E0,5.4071975E0,5.3413744E0,5.3768177E0,4.090909E-1,5.498337E0,5.316058E0,4.090909E-1,5.366691E0,5.3818808E0,1.3636364E-1,1.1181818E0,6.272727E-1,-7.9100925E-1,5.2856784E0,5.3363113E0,1.9090909E-1,5.346438E0,5.3565645E0,5.371754E0,5.7272726E-1,5.3869443E0,8.181818E-2,5.402134E0,1.0090909E0,-7.4780524E-1,5.447704E0,-7.2097754E-1,5.250235E0,9E-1,5.181818E-1,5.7272726E-1,8.181818E-2,2.6319335E0,7.909091E-1,9E-1,4.6363637E-1,6.818182E-1,6.272727E-1,7.909091E-1,6.7327952E0,1.0090909E0,3E-1,3.5454544E-1,5.402134E0,5.402134E0,3.5454544E-1,1.9090909E-1,7.909091E-1,1.0636364E0,1.9090909E-1,-6.994577E-1,-7.695907E-1,6.818182E-1,8.454546E-1,-7.8288525E-1,1.9090909E-1,6.818182E-1,1.3636364E-1,1.0636364E0,5.346438E0,1.2365884E0,6.272727E-1,8.454546E-1,6.818182E-1,9.5454544E-1,1.3636364E-1,1.0090909E0,1.9090909E-1,7.3636365E-1,8.181818E-2,1.0883266E1,1.3636364E-1,1.1727272E0,3.5159843E0,1.5739069E0,1.3636364E-1,1.0090909E0,5.3920074E0,5.3920074E0,-6.0255434E-2,-6.136674E-1,-2.599231E-1,4.5032788E-2,3E-1,5.1906396E-2,1.8345624E-1,3.5454544E-1,6.272727E-1,8.454546E-1,2.631301E-1,-2.4522172E-1,5.417324E0,3.5454544E-1,5.275552E0,5.265425E0,7.909091E-1,5.3059316E0,5.3261847E0,5.321121E0,5.3261847E0,9.5454544E-1,1.11511044E-1,2.4545455E-1,8.454546E-1,-3.2188627E-1,1.3624192E-2,6.558621E-1,5.37307E-1,6.818182E-1,1.07358E0,1.1181818E0,6.272727E-1,7.3636365E-1,-8.635586E-1,1.0636364E0,1.4504639E0,4.9850016E0,7.909091E-1,1.0636364E0,5.9095683E0,3E-1,1.0558014E0,1.0090909E0,6.0821643E0,2.504882E1,3.4683962E0,9.325046E0,4.699496E0,8.048836E-1,1.332554E0,5.3587646E0,3.5454544E-1,8.197193E-1,1.3636364E-1,1.9090909E-1,6.818182E-1,7.909091E-1,1.9090909E-1,1.0054928E0,3E-1,1.2132884E-1,5.7272726E-1,7.3636365E-1,-9.7840494E-1,5.402134E0,8.181818E-2,-8.162193E-1,5.4122605E0,5.4122605E0,-5.47424E-1,5.7272726E-1,-6.526282E-1,5.275552E0,7.3636365E-1,-8.294371E-1,5.2907414E0,5.651583E-1,8.181818E-2,8.181818E-2,3E-1,3.5454544E-1,-1.0843697E0,5.7272726E-1,8.454546E-1,5.321121E0,1.9090909E-1,3.5454544E-1,7.909091E-1,9E-1,-4.362525E-1,9.47197E-2,1.0090909E0,1.1727272E0,1.3113273E0,-6.1545753E-1,2.5720425E0,8.454546E-1,1.2485887E0,1.1727272E0,6.818182E-1,3.3786423E0,3.3529016E-1,1.3237141E0,1.6039417E1,7.751823E0,6.888928E0,3.3788245E0,1.7823716E-1,2.1310358E0,8.782105E-1,2.6925697E0,8.181818E-2,1.1315922E0,1.1660529E0,7.909091E-1,5.181818E-1,9.5454544E-1,6.0943854E-1,2.4545455E-1,2.4545455E-1,-4.3138364E-1,5.181818E-1,-6.3669723E-1,6.818182E-1,-2.322487E-1,9E-1,-5.6045794E-1,-8.438195E-1,5.4122605E0,3E-1,3E-1,5.181818E-1,4.6363637E-1,-8.264477E-1,6.272727E-1,-9.7019696E-1,-6.7410624E-1,5.3109946E0,5.295805E0,3.751226E-1,5.300868E0,5.321121E0,1.3636364E-1,5.331248E0,1.3636364E-1,2.4545455E-1,4.6363637E-1,5.331248E0,5.331248E0,5.331248E0,-7.4752307E-1,7.909091E-1,5.331248E0,1.0090909E0,1.0090909E0,1.9392414E-1,9.040335E-1,3E-1,3.4891424E-1,7.3636365E-1,-4.7961417E-1,5.615902E-1,1.0090909E0,4.060404E-1,1.0636364E0,6.409807E-1,1.4778157E-1,7.909091E-1,1.3864415E0,1.1181818E0,7.653649E-1,1.8873612E0,6.15535E-1,7.02705E-1,1.3636364E-1,7.3636365E-1,1.0090909E0,4.6363637E-1,7.3636365E-1,8.454546E-1,1.1727272E0,-2.5187188E-1,2.554928E-1,-2.8499138E-1,